"","PC_1","PC_2","PC_3","PC_4","PC_5","PC_6","PC_7","PC_8","PC_9","PC_10","PC_11","PC_12","PC_13","PC_14","PC_15","PC_16","PC_17","PC_18","PC_19","PC_20","PC_21","PC_22","PC_23","PC_24","PC_25","PC_26","PC_27","PC_28","PC_29","PC_30","PC_31","PC_32","PC_33","PC_34","PC_35","PC_36","PC_37","PC_38","PC_39","PC_40","PC_41","PC_42","PC_43","PC_44","PC_45","PC_46","PC_47","PC_48","PC_49","PC_50"
"AAACATACAACCAC-1",-4.72989632265552,-0.518265193172792,-0.780909966535252,-2.30897826106181,-0.0715884806051173,0.130235114013316,1.63059021058681,1.1835333342014,-1.25312179109333,-1.90171724146936,-0.746931688539795,3.62278585808414,-1.092352056945,-0.829927988554222,-0.414231338511646,-0.166765942460802,-1.39019680650756,-1.26684815901931,0.405920178880114,-3.26200402161097,-0.804457401199343,1.39738163100279,-0.821095353850227,1.37274805833411,0.889338173592959,0.168669575803106,0.744996621376485,1.95004632199373,-2.84705879185453,1.92594495248297,1.90608162560817,-0.765686979632319,0.788668605204565,1.38535740741453,1.540251568496,0.470925699621885,-0.582382174220233,2.36992908630098,0.102867777741473,-0.849850896836263,-2.02782244055243,0.399387340191527,1.53010726054886,-0.0566972149715491,-1.60562109176224,1.23769835368469,1.54453017843604,-0.0648872961994602,1.36569260437457,-1.84904251735514
"AAACATTGAGCTAC-1",-0.517625427870415,4.59230676659782,5.96056922857519,6.86773639490799,-1.961443496411,2.78468375088396,1.51520722937086,0.356505728967448,0.826212152136373,-0.584194572624959,0.583398608847644,0.842840104089946,2.16073975068751,2.89595630868712,0.0127759433459786,-3.0467128574381,1.30155089883994,-2.52447256736293,0.875363551121235,-1.28593447376916,-2.84247962597796,-3.19138505637931,-1.89136848790481,1.2605249890146,-0.0476575952236623,-1.09940485258738,-1.75738983665619,-0.885378667712587,-1.46987814831588,2.21568887526754,0.215037951297236,-1.19362838660521,-0.168690461772637,1.20412467758185,-0.312309718878938,0.52638648627247,0.832042836891727,-0.666658156312224,0.30002044072593,0.747262393789312,-1.31325785870521,-0.191274013780337,-1.78831607505789,2.24749896555506,-0.33526781243258,0.408513157288052,0.267649050411573,1.34740914923542,-0.612076299354834,-0.939152449909902
"AAACATTGATCAGC-1",-3.18925551789247,-3.4694432350354,-0.846978194715028,-1.99565376607972,-5.10640862603879,2.12371159716863,0.336615164955655,-3.73070608035769,0.903853181379327,-1.13143193535542,2.03491908114114,2.42898625526093,-0.58935201319358,0.268766646539538,-1.03153189795122,-0.775709975421417,1.23879311816981,0.532127746655871,1.93873766281495,0.384308732820016,1.21384817220114,3.91522305126282,1.04720860957177,-0.394288567200292,2.23987154879821,-0.315140289375704,2.90976253749232,-2.08713453784151,-2.26845269582096,1.01999684906679,1.89777247552146,2.42334837344199,-0.781542376209952,-1.55972812410424,-1.64885420561819,-0.12153257308655,3.04998890977507,-0.27898449901902,0.0674413251653821,-5.17668983232188,-0.767229865053517,-0.688122281534459,-0.164517592309261,1.15925442770684,0.639709711703722,2.77252043945901,0.90877637620174,2.21864526699312,-1.46443516146728,-1.69759328811646
"AAACCGTGCTTCCG-1",12.793138735493,0.100825288237324,0.629266177839909,-0.373722535019241,0.219431860157814,-2.8411000786903,0.812948444146045,-0.13461614601594,0.618538052733765,3.44065499980712,1.9380377280612,0.584994493371272,-0.768949958214729,-2.07788414750065,-0.103773550735566,-1.30869384373208,-0.356779530123517,-2.57299234774835,-0.287147956575816,0.0314009894627026,-1.06427328922131,-0.0743377886610056,0.820937318487008,2.43865039678967,0.702145252955767,0.645244074479117,0.164541861439009,-1.40296696897004,-1.56356073120376,1.76313812927313,-1.4090531008863,0.608033470457629,0.30281709021247,-0.981835186007657,-1.17614429333538,1.40343957823771,0.441229720696092,-1.39327905275061,-1.99461070214902,-2.30224384001174,-2.04858697683168,-1.2859544466715,-1.79269689211854,-0.551089145169395,-1.30443071192808,-2.24267265084115,0.438226808501312,-1.07257656875311,0.217095288126357,-1.3981243216684
"AAACCGTGTATGCG-1",-3.12906400978876,-6.34788287911608,1.26560015002214,3.01478768712827,7.84529636261288,-1.29897667195144,-2.40971033152002,0.418848347298923,2.88261096279468,1.18979899212426,3.63313202260838,-0.475710839378235,0.813106017458331,-0.993586681393313,-0.780329453278159,2.04707720489157,2.44430566620714,2.63702207057915,0.150524972879021,-0.114531147086239,0.730043408820044,-2.7533278803036,-0.480373605961023,0.430731956101364,-1.84073188018373,0.538812054332067,-0.555410991659386,-1.08739971511784,0.117818907001124,2.34844800444066,2.74322018935755,0.624135548177807,0.418141630124619,1.81613974258874,1.06313781087179,-1.99688500986718,-1.36383433523519,-1.14486788273442,-1.50693340141824,-1.60302127266807,1.06822795991708,1.5781181432885,0.52953195950745,0.090550951107855,0.506070952884796,-1.33331570048719,-0.87160925461523,2.44706863153751,0.779969823780023,-1.42506285514668
"AAACGCACTGGTAC-1",-3.1090537114941,0.92631072383875,-0.665167451626243,-2.31981980880277,-2.004918101701,1.48417895047758,0.269732605936481,0.423223994467636,0.207091774016285,1.5410812825315,1.38206174226483,-1.32581574235101,0.783139577065547,1.08652749379318,-0.694419501852183,1.50203706675436,2.97029517145039,1.60883331081758,-2.11944510168404,-0.744651423232231,-1.6080062826763,1.46157815951009,-1.63910514782328,0.119919808762722,-1.32384030511918,0.226809613987635,-0.653709793365901,0.14591509087653,-1.58908403588339,-0.996214002998594,2.55237763324114,0.403488295379152,1.28816188156106,0.215631597209811,3.79024644287831,-0.149787693172259,-0.517106130632785,-1.54975406954503,-2.35178025358531,-3.78941468306867,1.90808825170644,1.34140181952883,-1.49448804157962,0.300498347687626,1.66296582089329,2.30027505676347,2.13683059943451,-1.52897296459719,4.23066224615071,2.5052542573394
"AAACGCTGACCAGT-1",-5.02404583066966,-2.11638876192517,-0.19651307305939,-2.10728399594944,1.11581207915491,0.656560058763021,2.83524674068191,1.00470483000256,-1.59474154585834,-0.488362022491011,-1.5061033031284,-1.91050670031908,-0.56295900178258,-0.0583979044694252,1.19127449010753,0.970856960204477,1.09721607265266,0.148003744979215,1.84109059776216,2.7380196184426,2.92824702641364,-0.203435155292152,1.17913986527315,-2.77379380975358,-3.45482515559277,1.29802197832673,1.02756995025365,-3.63629134119075,1.2118000638975,2.33217242245098,-0.194264507948213,1.01454254007657,3.77499315140968,-0.450202466964091,-0.531996351061291,-1.49796417380907,-0.82231825839775,1.5739940733861,0.847921087071075,0.508882754958027,-0.198619862087386,-1.58392991673581,-0.27023159163,0.0536346960242629,0.262501607159392,-0.877563333384468,0.950517847322909,-2.02823880139943,0.815087319489313,3.04540557250169
"AAACGCTGGTTCTT-1",-4.91345445921704,-2.91562796274577,-0.0438140389072386,-0.820240703620797,-0.97434022236706,-0.601898687878152,3.00533195782792,-0.759334684079798,0.847618805680971,0.078789281901214,-1.99056928221126,2.07027411461902,-0.392473251260648,-0.93716488946089,0.35027994469337,-2.81742760320825,1.15782779250865,0.596385448419471,2.48929648855423,0.955288511065019,-1.44878154566304,0.835446947837711,2.77749281308991,-0.239442709609316,-0.680541371750509,3.4350816680857,-1.04520041800471,-1.24660136273837,1.02542256743827,1.19690647824834,2.26644525149594,-1.61677349637405,0.972031022182308,-1.94022456124843,-0.470300323050394,0.695590663388271,1.1975278451517,2.27233802401086,-1.23408570618079,-1.08870372428323,-0.570472665120947,3.1428219859695,-1.55399548686587,-3.81659030524262,-1.54407167203584,-1.2316176450283,0.824436563794018,-1.78161712350621,-1.77145291745527,-4.62906464456911
"AAACGCTGTAGCCA-1",-5.26665335099891,0.873187913277333,0.394195130580098,0.42142844381558,4.23482294077268,-2.48388000215217,4.05266232653059,0.649853371999357,0.46488060624126,0.311989861467811,-2.2706039267224,0.929224175190413,-0.176723462536334,-2.21341198581637,-0.931699330549825,-0.368753656798659,-2.69007377821512,-0.628155720995532,-0.418809867343713,-1.0072377812519,3.37449987109905,0.745787474552687,2.41846193140639,1.36935710029933,-2.64458123368136,-0.0516743471048887,-0.264018866366127,1.60641301658622,0.328145054123403,1.96464705133305,0.399116953208608,0.258737021294659,-0.613919940555093,-0.198117122621735,1.28992787709735,-2.46324028596431,-0.407435552022234,0.236147905896555,-1.13890414915055,0.451944465916227,-1.27825721323337,-0.103681472419259,2.00388277908544,0.531109544798339,2.51004615769001,0.914819556915786,-0.965731716686092,1.22221969804642,0.0154608958610932,-0.0607746895838889
"AAACGCTGTTTCTG-1",6.26585449094136,0.241689803947008,-1.37704748147216,-1.47899610536546,0.446991512173416,-7.49344294377851,-0.537415704899162,2.10330697565891,1.2176720058524,-1.15135285472119,2.40733806103377,0.510699193890447,1.46353534896772,-2.92788801716204,-1.88984588645644,-0.514340323299486,0.150831199807148,-1.51611882384538,0.124740504913404,-2.5411416060766,1.32827530747619,0.437630780724377,1.10082711426981,0.173747773414024,-2.72493649401754,0.388655916971225,-2.36687598749562,-0.15987479903867,3.80611228072692,-0.878467982652796,0.81895239629012,-0.686278187819363,0.927729100223703,-3.13787499725489,1.79799834902606,-0.0892308931023104,-0.836960472939256,3.96307518631765,-0.101906946821576,1.44300180001286,0.186843603472227,0.894387376613554,-0.139292152820639,-0.322388707528458,1.50794281949647,1.57849298896286,-1.38272965010409,-3.29137886415766,2.33250768797405,-0.720867796719735
"AAACTTGAAAAACG-1",-1.92017777833226,5.87614802351186,5.45261116276315,6.46813658863545,-1.8293880923904,2.26776866914321,2.1457656382202,0.249453790771996,1.78138971678182,1.48255553855888,1.44002221202454,1.19211335867596,1.95259410772528,2.28598542110237,-1.93200193249102,-4.19976457101373,1.3258978086664,-1.35180939056997,0.0814557352747165,-0.830564937313251,0.644222714960588,-1.08497457259111,1.50418381695847,1.46468248438099,0.243826125202483,0.350371657459438,-1.05560745373739,-1.06873133240587,2.40837815260051,2.38408774254222,-2.35848312277032,0.560284599884029,-0.137238696504949,-0.830789415945553,-0.70234418177075,1.2350220351896,0.451632171698368,-0.592079361137541,-1.12523327693929,-1.33683071347778,1.50683940966429,1.90843337484357,-0.779293206502075,0.670005622057494,0.866823386532246,-0.411743446855337,1.46194521931549,0.63489704701235,-1.44550525869338,-4.44316013188881
"AAACTTGATCCAGA-1",-5.16865676814598,1.71960639800069,-1.38647193174726,-3.50164190598907,-1.64414113658557,-0.607151191849176,-1.22149622561286,0.891572515907102,0.00919197980110732,0.601647074927657,-1.04743394174845,0.0578128921344304,-0.493746858604786,2.49544820074344,-0.4734623589707,1.64464702430665,-1.761339050301,-1.03749110911562,0.632138478638624,-0.667780028746576,0.255701474013098,0.88758782961422,-0.431830648642325,-1.19680683741758,-0.675510730970123,0.565454033466365,1.92530083966847,-0.174836449071348,0.783400365858901,0.157399563559445,1.55502601720136,-1.169703181665,2.52346738753462,-0.333648246939855,-0.284547661945133,-1.30634301546911,-0.10830108986059,0.963646926477943,3.59399684463402,2.35619046024728,-0.224183861144855,-2.68602131404101,0.701932595221043,-0.884011477785964,-1.70033795007013,1.25737805641211,-2.07716136959927,0.0499141747623265,-1.75332130740886,-1.8035492338136
"AAAGAGACGAGATA-1",-3.72684295583311,-0.837362382969513,-2.4223474387393,-2.63300674931442,-2.56108949034472,-1.52542798340986,-0.859867152544128,-0.471143613071058,-0.355247692685918,1.74141061445932,1.99860346845841,-1.62398512164125,0.8981714309365,-0.285508677220355,1.28804618104852,0.599419260867337,2.25302709063294,0.235352364353641,-0.167679850961827,-1.846728755358,1.96439699325089,2.34365135068014,-0.447698339099701,0.927003031039208,1.30263285942155,2.9798147337364,1.21219377713815,-0.768277407867926,1.87659581376932,-1.22518876233139,2.66572972600125,1.17430459541725,-1.42664340081588,0.419305715272578,-2.34289228318748,-1.3130798954542,-1.07641648245108,0.361885817605973,-0.845344953310014,1.29997309833393,1.15803477904555,0.759182350715304,1.42542753187854,-0.571576261968606,-0.528014190979438,-5.43818736273072,-1.70234777272396,0.872009564637313,2.27419254221389,-0.58818832623071
"AAAGAGACGCGAGA-1",13.0624106052187,-0.48423135933044,-1.02083289126423,-2.66916561287786,1.53820891432347,2.25103961200874,-0.851009943880674,0.953144026745176,-0.915319475730564,0.239504855356508,-2.0432216619121,1.47865222228612,0.450767823154037,1.03833052766795,-1.71915321191143,0.284078437406517,-0.797171145211791,0.835335041245831,2.82379126651917,-1.84092743963102,-1.36114880511508,1.41270708570945,2.27310812570922,3.26481077479677,-0.192177956378376,2.29290409236018,1.74235349934532,2.03275982611643,-0.68827382387437,1.73314232597991,-1.04158214734105,0.899290744925702,-0.969713272488681,-0.0904294072975582,0.946872944789143,2.18119603103262,0.704069531232543,-0.868888995541032,-0.204800145367571,-1.93072597956023,-0.516067703313,-0.100372617981899,0.596302771779771,-2.24596197857389,-2.08696169449903,-2.09491023034043,-0.443590459299036,-1.53062716124481,-0.68502458130927,-1.22289127727355
"AAAGAGACGGACTT-1",-6.79183562587602,0.526205613347454,-1.24450449418795,-2.57707142576284,3.75595288661437,-2.03395420341233,4.43536796094536,1.83772142596779,0.592673685108259,2.03665613694149,-1.82438528020603,-0.73832422593386,-0.846112343702921,-0.72467038650214,-0.556416446854146,-2.00715781052456,0.302550422819413,2.11571432397558,0.667715828317779,-0.370508763748518,0.271973473389027,-1.45052676448432,-0.53829309087904,0.759793702840684,-0.591036531852196,-0.671628857673642,-0.977282745365376,-0.158707585797683,-0.421589826952344,-0.162380141854257,0.24294032168069,-0.908668999590188,-1.05826954940993,0.541542200014239,-0.0697332144047047,-0.478711729572239,-1.54349781269918,0.460639587283235,0.760745677287126,-1.42670529033051,-0.468180541103382,-1.22552836832344,0.835961482865354,-0.142908723463757,-0.95861496124063,-0.0302348677893457,1.46054500858238,-0.476766276892537,0.820896042800052,0.644237925185639
"AAAGAGACGGCATT-1",-5.50842812102916,3.72155558543851,-1.58132539354781,-3.01783816661331,3.11469279892396,-3.09945760210699,1.53344596676326,0.00909650278022705,1.05731298130107,3.38013616689693,0.242390657301682,1.132145336665,1.65146576850859,-0.269390732750444,1.11933529863372,2.21724928585578,-0.558343144582357,-0.853398967531564,-0.465235800866634,-1.7973095549854,-0.220468954489859,0.331444223336019,0.760888704219259,-1.4013512405308,-0.9759427310209,-0.115947437770374,-0.431011139831523,-0.0440466388872589,1.27420686830203,-0.661487468654856,0.949854087806273,-1.02130881603278,0.894420768517993,-1.66541727302608,0.801820522660698,0.106915273804002,0.639399117399896,0.663119154718499,-0.262097323472788,-1.54903782752945,-0.370563635671009,1.07608135730386,0.897886213722292,-0.583352733740669,0.38848572818236,0.586306856318547,-1.45708316525332,1.13022231471091,1.9766188727733,-0.689599378970525
"AAAGCAGATATCGG-1",16.600578161561,-2.32924770804511,1.35506644118051,0.12412249515031,-1.8636406009627,0.216318411660771,0.299534903652271,-1.4731787732033,-1.13278709174665,0.931980528634985,-0.662319880407604,0.518815551385535,-0.0371334965644648,-0.414140448468567,-3.26120228870629,-2.24006750006218,-0.449812249169488,-5.27994481199157,-0.0739897198245575,1.61653061386127,-0.986827900217249,-2.34475266413744,-1.64893587448073,0.303745307747233,1.98998173981708,-0.77661018307786,0.246318094351867,-3.13642069589674,-2.47162249695391,-0.18380072950719,-2.54599758185091,-2.14027878677326,1.05143194182987,-2.14042639559597,0.977983776804318,0.127246211084325,0.392143599884285,-0.703233263871718,-0.123198976455629,1.87750578665828,-1.60254346175488,-0.629460988033739,-2.32875663006535,1.12340891040887,-0.252392279009034,0.684648431157402,-0.794873132589404,-1.55761477226855,-1.33395762293708,-0.0816575035240501
"AAAGCCTGTATGCG-1",-4.63333676881579,-1.34253176065512,-0.390167965408291,-2.13210298992181,-3.82769054382302,0.506183417505284,0.974477065757562,-0.91368563487342,0.0939597308920159,-1.62878495575279,1.53193985165943,0.863271286306209,0.339376212931586,-0.464959623307339,-1.07119233080973,-0.203362172825189,0.447000376456175,0.776134344844635,0.474824097588376,1.26768403455837,-0.878443966826141,-0.321301047965436,-0.524954874009149,0.227991171393961,-2.39544037093902,1.72767728086546,-2.40912892772317,1.41374775780742,0.537762998467457,0.651701989182903,2.0785233406369,1.46218946279477,-0.536725075016863,-1.15519603247844,-0.0407415063676593,0.215205081422966,-0.423759389882961,-1.5111213613525,3.47978943584784,-0.735826966939831,-1.53513769712904,-1.1588793229305,-1.01293147748974,0.942224954224811,-1.15061715693877,-1.74370730745241,0.420573549032927,2.47472599375304,-0.544620928697112,-1.75183311148008
"AAAGGCCTGTCTAG-1",-1.64654548860398,2.1499744529309,4.41272784867651,4.62023174444827,-4.08124594110762,3.0731183592689,0.3944468577028,-1.00154653405058,0.513159290349953,1.59787559255755,1.54277535854051,0.864487438275952,-0.342542389341424,4.27947126397242,-2.69808561433685,-0.155139231470191,2.33025870231433,1.27657510123383,0.976248168494688,-1.85886906207939,-2.23997858569189,-1.13359188147078,3.33638321758687,1.66250297940743,1.43348130743124,-0.927842614725622,0.478174197293821,-2.37172345663575,-3.33602434952347,-0.0380922603054558,0.696221943814242,0.113101750412931,0.310702561595901,0.0275931899681439,-0.315022939882782,1.02526790058207,3.57941109277514,1.87781987864144,-1.54186691033917,2.01153962638758,-1.74378696199147,1.45692209909852,3.51435224639186,0.677734882900591,1.8244185064891,-0.687905575203575,-0.0880199430570012,-0.246812404877043,-1.59195944505922,0.633426352382436
"AAAGTTTGATCACG-1",-4.55244426320522,9.47997724728304,3.77039894907112,3.75877085046052,2.2928542304435,-0.672721039172728,-0.636719649367848,-1.095729499197,-0.252219227060365,-1.33728035322449,0.258962837371979,-0.558085091177907,-1.5305860277318,-3.07407064644555,0.48891042480115,0.902199745622288,-1.4535461202006,1.26180459391866,-1.19288037762939,1.21899661832651,-1.15749003323509,0.842531629566983,-1.64802829234081,-0.857165783243171,0.291475862732787,-2.78687892841682,2.03381855281542,-2.16749710913805,-4.98899069630652,1.40245093287603,0.177387442831975,-0.777947683268333,-0.714089116269494,2.81523111778893,0.0924494632015692,-2.06549464392478,-1.41091170864347,1.2653915353288,0.666110385937751,-2.93579767203123,2.5244598778989,-1.9156640270203,-2.82486408775056,-2.54674531188504,1.68219093358423,-0.770696996361057,3.02099196377244,-0.803365869183225,-1.41733646054421,1.07119544558464
"AAAGTTTGGGGTGA-1",-2.64589890551839,4.8169077913179,5.61057144469052,5.55986842746886,-2.21427776304543,1.25338310270813,-0.298084127882306,-3.23901384293914,0.892477134402234,2.03512157664276,1.03678890492867,2.4381809022665,0.515039783260688,-1.14231617891116,-0.427326668627792,-0.386621345670057,-0.10058183510656,1.97653496430572,2.19060832550007,-0.91072116952415,-3.25770600138156,-1.5998938113856,1.21482375967661,0.783305850932344,2.78793295586409,2.37905091692349,-2.82236610185739,1.87235425271988,2.94252720735618,-5.58375560698936,-0.237318888392241,0.553078417673828,-2.27571768867507,-2.86186356886629,-0.606903418328771,-3.66328339115578,1.46944210112006,0.475235953487637,-1.71139002785073,-2.24178998075431,-0.951090610725642,-0.610018317856431,-0.438198976418466,-3.05292606987615,1.3241003936319,1.33287068123553,1.07931473527067,1.21046530391388,-0.494895024608171,1.29522743145218
"AAAGTTTGTAGAGA-1",-4.3728967514968,4.76543366081481,-2.29308753352269,-3.24152050888043,4.30223363565462,-3.04601115729241,-0.746013027948395,1.74466638465765,1.36086611945477,0.169553976180823,1.17531624846281,0.0761581967711014,2.00754651077941,-0.209438495394583,0.181698029685776,0.453462146472102,2.43107571641,-1.37414065338526,1.5544469974854,1.79209431191094,0.0839136985429119,-2.46059495858338,-0.00148094275544555,-0.172312008541781,-1.53408034699711,-0.0931078531620636,0.294918360861041,-0.322036138556802,-0.30542891091771,-0.284285050556103,0.403827740402349,-0.35685973560721,-0.196838295888421,1.72531118432514,0.454698417425312,1.10993608686477,-0.495084979997889,1.77575149220991,-0.375720983936635,-0.168375499630433,-0.302928955377646,-0.913760105572387,-0.876485128281591,-0.081840758819354,-0.862554935529711,1.16897959497331,-1.11357535671325,0.168969212268412,0.673456831616949,0.21546468864239
"AAAGTTTGTAGCGT-1",10.8789813372324,1.07376629936246,-1.74817560125252,-4.10011762514806,4.0216363451102,1.21418247355161,-0.330897230434995,-3.44130596716968,1.24638703554621,-1.9474811659469,-1.67103692646202,-1.89690914633025,2.73743375689867,1.31995325561554,1.55888570656299,0.465445903177584,1.18965845214528,1.01312223166316,0.442206096804307,-2.2828096008822,0.675006520953796,1.1495402938715,-0.145200832773971,0.253081797833496,1.96284431788779,3.33901206025653,1.08656591601322,0.285551895897584,1.40009870330782,0.940003842433788,-1.89127654666772,-0.749767077069499,-2.26970942634293,-0.762276547895243,1.74853541697297,0.732584973125514,0.966831212663728,0.336697950258763,1.50835182096652,0.463322195131274,-1.42487137626679,-0.519910109500592,-2.13114694708182,-0.194341212788998,-1.36276689380445,0.354351411855996,-1.91365742960583,0.261080748131435,0.410733717410562,-1.08780890222562
"AAATCAACAATGCC-1",-1.81914991288388,5.93766139775434,4.19993331893324,5.23741608274218,0.363090214346547,1.67238521329041,1.06623324301526,-0.50352885630287,-0.885936078807569,0.108515035119833,1.35414012389762,0.462909285116361,-2.66775493403079,0.475824524020019,1.3933333144493,-2.27684357646549,0.93901650879056,0.0356119593991812,1.09498876438384,-1.61346224340238,-2.02460136243591,-1.11359953492803,-0.766981764299229,0.658022923084309,2.72660001944486,0.619108145461274,1.7578885774115,1.38023754721295,-1.05898958747388,1.67547844475165,0.38689904538391,0.852779903400382,-0.818050956611569,0.413233464309597,-1.36889145531228,0.319559857290958,0.413723203084364,-0.593121001588758,-1.03626385915057,1.78145787177598,-0.0899870270854129,-0.272141342593169,-2.04721941850118,0.796880878631739,2.11719935930654,-0.405261562492828,0.785199055448145,1.30383119581817,1.35523718255744,-1.13404887202294
"AAATCAACACCAGT-1",-5.87683041827157,3.42523322698389,-1.65241716691001,-2.87032604424968,2.32642564963729,-2.93137367565058,-0.670370711093977,1.13124012170186,0.229372019741838,-0.292515260119458,-1.16055094473788,0.223100683612512,0.930290948480674,-1.12605235867283,-0.459967872619069,-1.64850310598611,0.828904493121552,0.33759573305252,1.95630386868682,-1.49701183047825,-1.42230107543678,0.785709602126009,1.13318371813816,-0.272198696155528,-0.703497037229453,-1.50176560473443,1.40985952209747,-0.929353526202663,1.45011614156062,1.30672980018916,-0.296060753521596,-1.11896125662136,-0.724987467944965,-0.982276562135292,0.541877088868541,0.159836582325666,-0.769424026614785,-0.283706385719072,-0.0807257528969669,-0.819753252928884,1.92302332307429,0.19827484614906,-0.769797428238644,-0.34774148133896,2.4581169790815,-1.47598362460149,-0.301827162970555,0.194070968569465,0.77126277891845,0.652413882171618
"AAATCAACCAGGAG-1",-4.57819231740913,0.373672098834114,-0.863401364882053,-2.51860838154611,-0.13215953478201,-0.0614115141261981,-1.70453227927508,0.557076103657766,0.535227544685844,-0.418671476051851,-1.50600819545023,0.305516047971242,-0.111113202200757,0.818120938098105,1.30269966860101,-0.985362615761091,-0.832966378259281,-0.0595679138730824,-0.264481232035384,0.575715769692563,-1.10535408211831,-1.83622720554175,-2.29435100974976,3.79970032336118,-1.37319906783506,-4.39333758892297,-0.792699105040625,-2.11215425263322,-0.748607381963458,-1.62348825985886,2.91794431693795,-2.77598777504087,-0.38209259159204,0.10292992457447,-0.0319476121623211,-0.0758871067110883,-1.5014633253646,-1.83222982053991,-0.476862048707491,-1.29791895194744,0.747665688334941,3.27451001277965,-0.269039653928291,2.03960947491397,-0.939832585401595,1.22018507059144,-1.47083147585704,-0.426742978375478,-0.854487715489384,1.24272101295293
"AAATCAACCCTATT-1",8.10460920578284,-3.26729432772666,-2.40466419394851,4.00025822717167,-5.91794677781909,-3.3150675134941,1.07396215226399,3.5671168470075,-2.10241352202942,-2.94580714875195,4.11080140663056,1.75201406261567,-2.41131227390061,-1.23683502719831,-1.5355915897664,-3.72478037814759,-1.88831109616802,2.96583595496999,-0.60022180192636,0.365049721252125,-0.177560159481122,-1.38634615419919,-0.843779916959479,4.23276022977041,0.415315999388394,1.13987365450672,-0.911816673006439,-1.85054412154181,0.642938919846434,0.507732463822767,3.68033663952874,1.61140158504236,-0.176993324445448,3.70730278694319,0.585944670206777,-0.132976713430196,0.277216803780579,-1.10171431223824,-1.43573306262004,-1.36378648977379,-1.69098792838894,-1.33460473362298,-1.74582535885069,1.9259206875945,-3.36324796605148,-0.265835647765956,-0.391802163301477,0.237414544378242,3.72406163716932,2.829221656439
"AAATCAACGGAAGC-1",-5.21209510027539,1.75726899841177,0.0636497869973219,-2.28386249688061,-1.82837078185738,0.464576414669146,-2.06692730190606,0.342984650261002,-2.98535749352483,-0.00490039313719061,-1.3638534516078,0.591662339365293,-0.531238914382514,2.69904542220164,-0.790695668416885,-2.07797085676695,-0.230959545662805,1.07223193054989,1.72027253331391,0.948979769699332,0.634156541991829,-1.95902158548611,-0.471322756541771,-0.562761833105548,-0.860285439763588,-0.855541859984561,2.06072620246425,3.54842093640193,1.25341263724298,1.79503546829373,-1.78634266472746,2.75998638394512,0.192219423989903,-1.31682404703126,0.568566952824766,3.8301528242053,2.26638363969514,-1.06257360557698,2.57463367351436,3.48287314659699,-0.897665503447126,1.58769500926787,-0.258442948427915,-0.513537383955702,-1.47304190235469,-0.479403487422115,-2.78619270134389,-0.649334893667117,2.94215951500638,-1.52209839561444
"AAATCAACTCGCAA-1",-3.24664917633624,-2.53898863750541,0.259881208650031,-2.03323534881212,-4.59059969919588,1.50149964120548,-2.20409265425732,-6.4670033649471,-2.78606105280359,11.4263493844911,4.21977740831852,1.22132105146064,2.51296461097923,1.21602474401252,1.6545854288601,-3.60922507547755,-0.432730605461511,0.944434786010939,-1.98477169147944,-2.24733630841549,2.69287961137306,1.89943116610589,-0.407557032379862,-0.567402825989495,-3.91649914703505,5.42602240034383,-3.34822753422215,-0.277581779303724,-1.68553931595488,2.24254121595362,2.16351065880099,-4.09392625962087,1.16740934185257,3.33662367287174,2.43591725539948,-0.173955123103761,1.65519274058402,0.313458263792044,-0.297444408255161,2.26188357038305,2.08103394448215,-1.22418123736118,1.36719400213287,1.67811240470932,3.23482289450109,-1.873087244461,-3.34998901836368,-1.6097978391009,1.83179539082605,0.019735937445765
"AAATCATGACCACA-1",11.4050516942816,-3.82924202092894,2.36835033770581,2.40803758346722,-8.43481278221386,-9.44326366613851,-2.17976140612047,-1.0542362577886,2.17159991716758,-0.166321669105667,0.207372525716103,0.602801891681122,1.69953139091038,-0.345506107760838,2.83802125175717,-0.53950543726797,-2.60171523187399,2.46825043735512,-3.18457815215737,0.986119077739929,4.7612857675863,2.10874728661901,3.57902155245713,1.27171460481358,-0.116412556437461,-0.496417114537245,-0.0593057342201597,3.7688644646174,-0.445710105620743,0.516224337878231,3.88292806490203,-1.53414830777813,-0.471786144615096,2.02937439596657,0.866767358148425,-1.236194605052,2.8458310128879,-0.599500251327807,0.79321921995126,2.03982936375484,0.98647603038218,-1.19787906041794,0.14182970254325,-0.450752702908113,1.95683976506002,2.28960431696233,2.1282861585435,-1.69686067294182,0.606809079765822,-2.54543261597322
"AAATCCCTCCACAA-1",-5.35661676485543,0.988504474456157,-0.749184517688017,-1.97350279499872,3.05210079641844,-1.61900676746606,2.21888647758371,1.97325996438504,-1.1905093536074,1.22206811108544,-0.357462999054179,0.34925521073185,-1.19921959920986,0.119979984662859,0.494964078137829,-0.163895807389682,2.09109003297962,0.422105424325921,0.514264542857826,0.338136403353257,-0.829714820626481,2.30474417017666,-0.181431816031196,0.0305387694045654,-0.291812452543749,2.14207889058219,0.526679363788173,-0.317051360835011,-0.483304816784194,1.8200479434713,-0.446665761649165,0.684862944544801,-0.613594172446768,0.887012098317814,0.97287075919913,-0.536160319487869,1.41541718427721,0.251008316762669,0.980756730065597,-1.15720626753441,-0.907985188073095,-1.28362573926792,-1.00870464584487,1.35648271717375,0.397550396772913,0.323192147755137,1.52960625270496,0.235160543713571,0.606758449909439,-1.10940806202483
"AAATCCCTGCTATG-1",-4.19930787553528,8.44290976230503,3.68554734637429,6.33059025247691,4.62620141894826,-2.70527415855903,-0.327206842804801,-1.62687103361016,0.322607060414584,-1.92228411400031,1.35573167430567,0.567193084740268,-0.300554891599167,2.13458841902485,-0.0944405722946149,1.70895436740691,-0.502931183027567,-2.11469293082761,-2.4854159925367,3.10422358650377,2.04528337281546,4.84868440424638,2.78765251210291,2.32816772285877,-0.335976760316416,2.85691770420761,0.144077878164114,0.403890349517489,1.76061195144004,3.51537615350179,4.31048018570358,1.22155805865078,-0.728106210263179,-1.16483884966361,2.43060841743808,-0.962642269335584,0.0549232604629535,-1.24775197019015,0.100743817312526,-2.62616191669373,1.87817485191025,-0.343613870342154,-3.03983831784982,0.237601294316886,0.983853213018281,-0.570310520710783,1.80184604984912,-0.803240220366882,-0.150133885281606,-1.69054437087082
"AAATGTTGAACGAA-1",12.0659347029474,1.66101642082904,-0.266249070206958,-2.86250601830982,1.76313139809127,0.660996375908347,-0.546971681083366,-0.0188707947755813,-1.83404597404671,0.0673079433080157,-1.24542364606884,0.240551696896284,-1.10440733739645,-2.06924627211271,0.121148668043078,0.153509049319819,-2.34925468607349,0.796590378105606,-0.537207415291006,2.23031012764064,-0.449530215320698,-0.793167370971955,1.90831765292942,1.35888505750968,0.821026981877764,-1.95380276238222,1.16116141077905,-0.416337776681066,-2.18014729676542,-0.291760618277448,0.244273828017286,2.20226383171735,3.10441711455816,0.986151892393787,-1.23976449548147,1.23178327238367,1.75786372356589,-1.04246404356827,-2.12835034527908,-3.08423802210359,1.31841657320654,0.159803524290067,-0.372105174029218,0.798552745520145,-0.668734348211494,-1.91893809065194,-1.22264713714147,-1.65879870014659,0.723193495208326,0.194045858226021
"AAATGTTGCCACAA-1",-3.20371563995762,-0.322657258935344,-1.37645742676741,-1.55662899328132,-2.44726638869504,3.00876935516273,0.743249637470767,2.11362638997128,1.73165613498987,0.3972377255464,0.925132083309242,0.51433030968727,-0.78929148413248,-2.43848684321224,-1.81577362534383,0.350478979713046,0.843821516566678,1.49722985593013,-0.46042873979264,0.356220225900141,1.79508263947579,-3.81254269735533,-0.145123711389887,0.98207980325476,-4.89450206065013,0.273204056154533,0.152806302127659,0.899283464025254,0.834262736742847,-0.730684975118148,0.06143987060044,3.97930600945547,0.16836492381689,-3.18635389856193,0.920390523380778,0.685336884585876,-2.74417363239382,-3.03646121927948,2.33348820413526,-3.08066683032579,0.910202570479211,-3.06433180633461,3.76089402764441,1.44010237158252,0.00695440428528151,0.723029367689947,0.973832894413982,-2.51657553225307,-1.14355268414226,-1.34635819561123
"AAATGTTGTGGCAT-1",16.5528413639444,-0.444733866361433,-0.300440123007649,-0.97426272464423,-0.646220536190952,0.420339241921509,-1.21247025629014,0.617957029386668,-2.75008638252941,0.271174869249522,1.47016049967339,-0.92438388598203,-0.730889901291828,2.37404429557709,0.107194100137352,-0.803374653656572,-1.65478366630184,1.09038288024013,0.187399977316913,0.835541286989383,2.94346272177583,-0.145637880825464,2.14366133202611,-0.109070048401906,-1.39615935270507,-1.00574903535256,1.26637434128387,-1.29035609419484,1.72773851058257,1.58189333296412,1.12611517659389,1.36002443600869,-0.484031207896695,-1.31017534071402,-1.08200883384274,2.4784228179015,1.06101730658019,-0.549782718720934,0.0908517473957331,1.92890657384397,3.03371019433349,-1.57291686565429,-1.71572388365527,-1.1921139003801,1.04838281147289,1.1516104700435,-0.344365420353196,-2.09047580950616,-0.180377535073045,1.8941085437662
"AAATTCGAAGGTTC-1",-4.56192330323903,1.17876852599293,-2.16016952439115,-2.26025584162167,1.70967012764803,-1.42611087572309,2.19816909805122,0.934401299989946,1.1224359237535,-2.0377226034816,0.0816316277387463,0.933852753293901,0.127125836683337,-0.0832606452730008,-1.20142713308956,0.814268181623146,-0.164771161911008,1.33229317554023,-1.48843283630714,-1.95141473131897,-0.11831125558161,0.323380557742347,-0.973363067597896,0.142432810593692,0.203732607545691,0.392490130039359,-1.3915732564589,1.95794793603633,-1.81211483963668,-0.918217488715468,0.621483550316737,1.22370636542932,-0.454328991215124,-0.391364043269127,-1.37007280017205,0.276256837541776,-0.612112490600175,-0.680952551458435,0.596348367728189,-0.288539287689252,-0.676174839233714,2.27309043334144,2.1324696569164,0.408423319395698,0.309982179071155,0.783872119765608,-1.00021542431935,0.748350172700858,-0.359084288083568,0.103541889035912
"AAATTCGAATCACG-1",10.3473858779638,1.13654828004268,-1.90831327843384,-2.27060608076537,4.98310793199263,1.53071317547513,-2.19288018370378,-2.15298051418564,1.58020538159655,-2.06529302793872,0.646853425331111,1.00296916111372,3.59762925838346,1.42724005797685,0.729113118732511,-0.143209028505994,1.75124241452079,1.27221179028774,1.34573565338704,-0.449448328135728,1.6577399690886,1.01192999734136,-0.255419077136953,0.343218173035466,-1.88391700244796,0.940649127714495,0.213886294086133,0.0246104757412937,-0.921775198157655,-2.24072352958556,-3.16413517401777,-1.68806142106381,2.18789865852333,1.97793216497011,-2.6133156799451,1.38881598605577,-0.136313520903581,-1.23763666556021,0.517581294059356,-0.504776318933837,3.22451347599169,1.78277346185097,0.512115177670623,-0.136913026920431,-0.235770159450894,0.380915588590882,1.50735514760902,0.272958118637207,-1.07976529371775,-1.1261672957731
"AAATTCGAGCTGAT-1",13.1245258406982,-1.67027027544334,0.973274499470109,-1.06950754887687,-2.54850914937922,-4.71937454505886,0.47413312416875,0.496200427788518,-1.89257098921495,2.06374455415411,0.79089474323292,0.510616637074251,-0.329072101836808,-0.0301063567159476,-0.545124810515639,0.461694367521286,0.893325626001629,-0.269649792793808,0.330365874647465,2.0430725704396,1.04479665526158,0.718090820709242,2.56597785850076,0.633090200568033,-1.75650422207266,2.40502067728567,2.07267266699082,-1.34153968447612,-1.58980448036408,-0.161407352464749,-0.474411463067579,0.924906184274612,1.09200059048653,-2.4252101633845,1.16405640798389,0.0341688038444494,0.198703224547023,2.05993522634395,-0.962875374964118,-0.529621096596031,-0.801103135440811,0.399781076180348,0.948139038645987,-2.44676717788379,-1.28402705770685,1.92413174737332,-0.667225171430148,1.31115310298612,1.29884500451905,-0.023918475336482
"AAATTCGAGGAGTG-1",-4.84987186072615,0.560657457269963,-0.901220474023026,-1.39865918818997,-1.40370287741072,-1.15894704458796,-0.790739484438048,1.63854559923057,0.246247416855537,0.453576811014185,-1.15346706886718,-0.841856466130581,-0.111750417891659,1.42119382738805,-0.558860190434723,-0.816116705829399,-0.567676459793734,-0.368902337863044,-1.61313814750122,-0.974095755093089,0.155934584037284,-0.26257337621053,0.913424191629021,1.55263425139008,-0.73572441538875,-0.174828980954334,1.17824119382307,-0.288935961073435,2.39812609774783,1.16900451615041,0.706553369095155,1.98176334859055,2.03561924399522,0.477780016195175,-1.28278728619252,1.34298145444936,-2.02295961981696,-1.32767586590691,0.731686555522566,-0.502950632617858,-0.334389717446073,-2.4007411539439,2.03410805369437,0.858953228142557,-0.835930083906827,-0.483336242832523,-0.805156924700124,-1.36315749898428,-2.03384193136583,0.286128630836259
"AAATTCGATTCTCA-1",-3.21899112473346,-7.55755169676681,2.60285342448114,3.27982771809262,2.33990938333738,1.12821406702264,-0.0422941592203396,-3.03996077528868,-5.19157011488181,-1.31525250268901,-2.23940423670226,8.33652901055367,-2.81237863142115,4.36119792562211,-5.49693696620739,3.57052751985381,6.45813657652762,-2.32282299348505,5.29073601581902,-1.04684129305187,1.20995073822169,1.65752326679878,3.65145529196496,2.39947970741317,1.3286840899568,-0.326275072177148,2.53994646183887,-0.640296732429469,3.79034617041939,0.998734382003778,0.635640264244555,-0.839400507186649,-3.02323706461824,0.64642843597072,-1.76002833013915,-0.678448784254601,-1.88813282578012,-0.952947888994237,0.745389551664584,-1.30128126250416,-2.91299258326746,-1.22655345698228,-0.565688057707735,0.567779336562424,0.929145208549047,0.46150781270585,-1.69597807530781,-4.01093970169045,-1.54901816902097,-2.14177877605377
"AAATTGACACGACT-1",-4.24912890714924,-2.38066946475263,-0.497012518701982,-1.23810320418871,0.765165504993651,0.378528974392197,3.76703133033764,0.163296036807531,-2.00232856585878,1.33863002258081,-2.54970397869504,-0.0200950352266007,0.00929454369137875,-1.02644383317459,0.788872608978424,-0.585189827168582,-1.25052458234866,-0.597113499355545,-0.317717304043461,0.306458039253404,-2.77118019743347,0.0361352970777449,0.610185715875843,2.1956779942106,4.04083353526639,0.701370056558671,2.27753130098918,0.982562649826371,-1.17475218132766,0.472822144823828,1.3315168862573,-0.10937877536733,0.989642444705572,-1.88217321526093,1.25811359395745,0.186943100293521,-2.41800350568013,-3.2271371584688,3.06602165730895,-0.741942319414093,2.77673099604006,2.62314039923979,-1.45670789312789,1.09103252697436,1.37299184686753,1.01947659189616,-2.85737786887044,-0.781721310981391,-3.98792181607025,-1.52470518018155
"AAATTGACTCGCTC-1",-4.26317549709941,-2.63293819926738,-1.30133072149065,-1.44916264439293,-0.721689130169463,0.725294105389439,2.18013390916531,0.0397548852047313,-1.61018844900457,2.49026224551399,-0.117268527205806,-0.305295684699617,-0.113453616812235,2.70451797569674,0.381789049921713,0.186846881662959,-0.389344605130432,-1.72551820611914,1.3207100065074,0.272807746450824,-3.87418048990809,-0.806212158686168,0.391889160884492,-1.2682090451591,2.0343453866858,-1.70686256305075,-1.30166469565553,0.984614579009878,1.96497785409433,-2.26105372078958,0.576641024803005,-0.255692894389568,1.02427272671475,0.796902298368216,-0.718235523708249,-3.5669302584907,-0.0211194396438728,-1.53184080021475,2.14477476599047,-0.188575925184248,-0.898365791136635,-1.59067273486588,1.20153630034352,-0.0757259773889503,-1.70963888127822,2.22758541937782,-0.518397345978458,0.717787050279771,1.27330386742462,-1.20628895085729
"AACAAACTCATTTC-1",-4.51223321523366,2.20097744216813,-1.72365070847313,-1.64269247009505,0.268726271137076,-0.967838750414353,-0.862737544737645,1.85051718511102,0.0682463955382913,-2.12375888015667,0.734141582386579,0.465373199235097,2.12176229798213,0.222554288456374,0.775212509860275,-1.50532127615721,-0.554900090984487,0.199263031029218,1.38123998857353,-1.65018710718732,0.932127123604097,1.97776247654018,-1.73688850076837,1.14454760791143,0.543880654374732,-0.339280982695602,-0.769641897386175,0.114261085478563,-0.460945574997558,0.546782697749539,0.936861139767963,-1.86734682023895,-0.264637954465699,-0.0895427051520344,1.50133795191682,2.2287861163535,1.24339140748039,0.488837387725862,-1.33510041500281,0.468105545728242,-1.18291562338115,-1.0850537584331,-1.48732463258956,-0.660011548660651,-0.0859506183069508,-0.343607128464322,1.77232107190486,0.56429764093123,1.29588880767184,-2.78128444120553
"AACAAACTTTCGTT-1",-4.87881512903843,-0.162257245334376,-1.74480536933471,-2.39485011957431,-1.6805817136948,0.52623511266594,-2.2063538646221,-0.892829960855704,0.873112504399391,-1.17892208891133,0.501533113404599,1.53227553976124,-0.885138608828263,-2.37641041280681,-0.636010123907335,0.283061555590858,0.136546822947428,-2.91502945671799,1.55975492759273,0.824903939762729,-2.00629272601926,0.100570765516995,2.2808864648035,1.05864152621224,0.777264333847566,-0.765703225523907,0.671479932901204,-1.11345450281299,-1.04672318147813,0.0487614227488669,0.729272945595562,1.1261524882038,-1.89197068460438,-1.41193940599686,2.13579700650576,1.39568954597754,0.222177199404193,-3.14196111937593,2.18654023663003,0.42584310663109,-0.32049624487552,1.45284830460014,-2.32281021658543,-0.0582635823591614,-0.440096932249428,0.203589471708384,-0.830205294044305,1.92293082594755,-2.79108077400955,-2.89337513867073
"AACAATACGACGAG-1",-5.3698895675147,0.550760576739619,-3.43050399713055,-2.27248455649775,-1.75345283207462,-0.684429798184824,-2.39947244245492,-1.05861555489897,0.660342256974346,-0.830267502080397,1.16321402471422,-0.592824667275309,-1.55057246607559,-2.66343525977956,0.321969892725559,-1.66615347873571,-0.0716596447780878,1.01942406300762,0.8544222864777,1.15831457510955,0.433084404196902,1.15307006956533,0.9694835197068,1.23089036743762,-1.03875801345758,0.622083782074556,-0.56760961147823,0.675962518107831,-0.956159019399455,-1.67188568691269,-0.940007968514048,0.871098418072553,0.265851883260152,-1.1407246972281,-1.07743597493501,-2.0449061490187,3.0655589905701,-1.41063298458981,-2.67949046613018,0.761558947023352,-0.787716778119606,0.0657485398670611,-0.302551845961025,-2.5711927777849,2.81227246633896,0.0836040515753499,-1.13122803721684,2.03817970571019,2.15973759179027,0.467744930931188
"AACACGTGCAGAGG-1",-2.74515117625986,0.00895440861199115,0.176324233183297,-0.419113782251521,-1.30853625291083,0.272792263481298,1.32530971579552,-1.05904623140844,3.58195779238488,1.26856205626534,-0.277564819965443,0.927856749522139,-2.1931229265795,0.518707484953178,2.21654748766328,2.19876237233528,3.4711374912364,0.67197987258788,1.42459681083115,-0.325669386459938,-2.15116435503458,0.0503426092397428,4.03863202989676,-1.26374794058467,4.19429114484839,0.411933366929424,0.810413494886372,0.904016742173917,1.86095592267917,-2.37163587102069,-0.202065807048598,-1.61120546341615,0.447303841384435,0.101421745336198,1.51740740754181,-1.15253848194733,0.0758642536753112,-3.21008832665002,-0.738168654880924,-2.07774548751993,-1.51565895241497,2.15833542396771,-0.0328451834273713,-3.05997896018916,2.89720517102094,0.363283087683054,-0.209561431817686,2.28314762467195,0.384956880309174,0.66713840066841
"AACACGTGGAAAGT-1",-5.79966007288115,2.2325660362245,-2.49720219783925,-2.6742211855868,-0.177377407529933,-0.623126951350612,-1.29450171145,0.756554909126149,-1.42964464435419,0.137291992098431,-1.24089332658302,-1.474775826731,-0.798253544505287,0.0680825729863114,-2.47279534633276,2.33219092314195,1.13240403181968,-0.639781784778387,-1.16346140739404,-1.19358406159539,-1.87961612160759,-1.11801534794327,-0.536933504529816,-0.670531979237978,1.24412128639903,-0.258261943558399,0.989559828766134,-0.799470318445201,0.0964702374917637,-2.01935670295224,-2.6628794309912,-0.961649136216229,1.38574841725845,-1.31900825050032,-0.297365644863833,0.258541186426894,2.14613662244587,0.149593872012874,2.99003589301891,-0.492115236375186,-0.195856603365577,0.431638242850401,1.09539468228449,0.184535389502761,-1.55729567687281,-3.74525185867035,0.23657508436873,0.314623486632257,-1.25794947599872,-0.176018435647539
"AACACGTGGAACCT-1",12.7988229357637,-0.337502753070832,-1.19125535227367,-2.56835919856321,1.61448069505823,0.251388353596712,0.206451742415964,-2.25153509288361,-2.41032982093148,0.273380728478688,-0.0417245790461411,0.0799328072626704,0.593781167050624,0.409151014866146,-0.192217090100121,-0.421936201527702,-1.37428512613534,-0.336157113810431,-0.149447840809761,-2.75385069172629,2.72662332670556,-3.68576884899671,1.73374875617436,-1.76006887922662,0.2026662320352,-1.60487441693096,0.070681485056152,1.32969163713681,-0.715411124287968,-0.570101926562383,-0.031051716232331,1.54169005565953,-0.547699622071395,-4.73401808047637,-1.3907234985228,-2.56306850517881,1.52487212922907,2.04778842324424,-3.32606227173811,1.8640588554149,-0.654871611232294,-1.8656367932241,-1.82424156379716,0.109713308276955,2.58471794013554,3.48701023564783,0.0580550443852366,0.270615046788322,-1.96431698423657,-3.73182206822202
"AACACGTGGCTACA-1",-5.49591936921031,1.43035466908906,-1.1505201792645,-2.94251516659945,1.6404503574246,-0.727152354630549,-2.06018613920399,1.28695087380233,-0.243911594993769,0.599176463604191,-3.69800060651175,1.99402184297724,-1.11084943781493,-1.44307446680109,-0.246346920587399,-1.17907888966171,2.4873085906826,1.49768697042396,-0.861910216438886,0.13291079683786,-0.275843578820001,0.521955996624899,-0.694064704052004,3.65406802250204,1.26433710047167,-0.925978103664812,-0.250434441123633,0.487752622812509,-0.629680323007239,-1.25260076844786,-1.67512589974707,-2.39359711536299,0.632553514180043,-1.31186866676996,0.375528944841729,-1.63850513541349,-0.111915074905568,-0.93920718814458,-1.33468885767248,0.383898497207941,-0.60548670238665,-0.354843247373111,1.48474647452738,0.111279979646134,0.869732912953216,-2.50905338086334,-1.22593080853934,-1.08233293757413,2.39368780452891,1.04955304162915
"AACACGTGTACGAC-1",12.4605300122822,-2.13619647949645,1.2181468773588,1.28148633894739,-6.47123725207728,-8.20852772890163,-0.0334621527845306,1.07711403698637,-0.00194292760673027,-1.90209035981555,-0.341123377575881,0.43857337620701,-1.46816024306586,-0.704839464539456,-1.86638444172556,1.24084852702632,-0.942727833409954,2.89899884215369,0.909125743535884,-3.62022460399709,0.184582823729987,2.12577287700493,1.3527557255025,0.755066640417861,3.02297131182799,-1.24673792110465,1.37778184032206,-0.544050086150003,1.25861669296231,3.22250977478945,-4.33424647620187,2.0534606877415,0.744469425137775,-0.621373451771241,0.267924137764594,2.90656539318367,0.183474086638766,1.73840079919279,-0.453654644227479,-1.14041698171015,-0.9965860823739,0.034812561387172,-1.56837210921823,-0.361143187542789,3.18892251700245,0.457269991645525,-1.1040842761879,-0.741435702433346,0.19821260223754,0.989632111127064
"AACAGCACAAGAGT-1",5.74032475327927,5.20154706257625,-1.66474369761049,-3.35573315806522,5.86429930163689,-3.11984968436771,-0.333665138705873,0.820916641883157,0.769882447914257,-0.677115280145566,0.956692421893952,-0.200349264466886,1.90275030580249,-1.35825501519672,-0.709920015201768,3.0029249596032,1.06459173631423,0.832568052886282,0.0226993221366141,-1.91894026480682,1.01724985847055,1.79857381466674,-0.328888788172769,2.10840484535352,0.289157490827124,-0.738054856982004,1.24563985698477,-0.510845826320829,0.258119402861673,-0.735230352529038,0.790010128298866,0.0516585487452808,-0.135747095803894,0.946724504457967,1.31727613130277,0.566854035347227,3.37479772270712,1.32899044511049,0.532477789447489,-1.4828834539823,0.0149474377198208,0.50393963383735,-1.22589702889812,-0.524668644271702,1.39874782900239,-1.94148283566195,3.08644490219008,-0.90285192043048,-0.122780029167394,-0.92870676725574
"AACATTGATGGGAG-1",14.2834936881086,-3.01884430825453,2.28597255289485,1.41012291389959,-6.66310089388683,-4.95647752087571,1.04964584621886,-0.683512215161129,-0.0823533988914226,-1.1870992257728,0.12611515598551,-0.941313779780348,1.78541295244393,-1.31984088149444,1.55788993574347,-0.895413800453406,-3.02802357383881,-0.99326008776853,-0.697119406346868,-0.294045426856699,-1.33371270330613,1.72714346226658,2.93386870144039,0.517337780901675,-1.41267344692065,-1.49932815745211,-0.651382848459539,0.605824768989099,-3.33343099511161,-0.0605394901062609,0.686250510839405,0.0953377062097887,-1.38165217398257,0.50210036875084,-1.15559709927466,0.201432621590907,-0.908912759559457,-0.402154552415955,0.394149867624547,-1.13554912376433,-0.376871248775189,-0.697238167338516,-0.901211751372041,-1.5997779113337,-1.30360480681385,-0.605391382693327,-3.06429002697675,0.218340184954899,-1.66661198868203,2.99516530764156
"AACCAGTGATACCG-1",15.3075007628686,-3.72600260461004,1.80314841691037,0.149295424484197,-5.29392189208149,-5.72781327667126,-0.30589420050989,-0.569695696731943,1.59410242439787,0.272089010524391,1.48039912156454,-1.2353762347872,-0.760260475024888,-1.9121461952022,2.01639344786986,-1.36623578179482,1.4349069231189,1.5506974027471,1.48574679850411,-1.9392613422874,-0.186723443866194,-1.27630887627312,2.99301499567779,0.660670272987917,-1.22050957796598,3.49756597766781,-1.81808629758182,-0.0311391873300683,-2.24333348639293,1.93756699034013,-4.87322770084404,0.659291363327436,0.594928975259227,-0.247429595024284,-1.16171127576272,0.683921651082628,-2.79599104976825,-0.434476366626742,0.588606984867881,-1.31092803164352,1.42330490018853,2.39483522590794,1.37191109521322,0.653879946592549,-1.51288345854921,-1.85555917941685,-3.85258072845526,-1.64357389757958,-2.75717825311379,1.63700916090594
"AACCCAGATCGCTC-1",-5.33704946824915,1.25996783385827,-1.51556160579001,-2.85149357923172,-1.95435914865558,-0.385661089438923,-1.6850466197633,-0.834256269186206,-0.722335669717926,0.545624870699992,-0.0290923053699124,1.3239644006705,-1.0893095072247,-0.0451128306885731,0.829548764000834,0.00496732319569406,-0.244746702305956,-1.17465536474995,1.25403792338724,0.855365220636843,2.08253275002592,2.47497645159238,0.0344858142314495,0.908334732728793,3.65040640439468,-1.92654756547907,1.79559675526769,2.05631272976447,1.99770587484578,0.136164724046929,2.85892662732096,0.798456910787372,-0.34375685690753,-1.8920478689957,0.307213957352732,1.89288771156198,-0.283243748456172,-0.151349857039777,-0.155532266894685,-0.601745800171285,-0.562586419175636,-1.24974345380648,-0.119134515751409,-0.520100249490242,2.06981795567795,1.21325467821422,-0.472889900731249,-1.65854778303894,1.21179300238965,-0.638740024238172
"AACCGATGCTCCCA-1",-5.03850394534385,-0.296517667214831,-1.00979414040442,-1.80232822252125,-1.5358038901952,1.42781564376547,-1.35131892776278,-1.71177926508471,-1.58270139850063,-1.40509626759231,0.319140011020935,-1.16914358033349,-0.248817458021942,0.26638020089863,0.212574155599197,-1.94280870281312,-1.71842465459938,-0.551704234257673,2.344412294401,0.00755208484988416,-2.83825177909704,0.293422322174125,-2.31427440026604,-0.724392349388554,-0.87933091236003,-3.44209914789601,1.57168854773146,0.0825864270829992,-1.39422450443216,-0.760088261152208,-0.205200474816327,-3.10612472467715,1.13816077031203,1.06290302025583,1.86407276088184,1.87483180584454,-1.2181092831073,-4.19140391115239,-0.997119422315857,-2.83174893335813,-1.2341494309674,-3.25829697749098,0.842596190363256,0.666696367049026,-1.61371866734866,-1.35388639014499,-1.75997122525418,-1.34336468346843,-0.199173784573422,-0.140684729068521
"AACCGATGGTCATG-1",-3.32028264188166,9.68752468823663,6.47421574083993,8.72895593518143,0.78469550486338,1.12337971760882,1.26697053129736,0.892576752801375,1.0939635196179,-0.107367348594813,2.08444147318152,-1.79715041571198,1.32597715014742,1.95761292337715,-1.30008378456174,1.27468485848735,-2.07806889964026,0.315240785066217,1.68871356224274,0.234434978062077,-0.166655324047579,-0.952695343685795,0.29257546711371,1.08043345906995,-3.25788950015045,0.0833002523726641,1.16148581293696,-0.0110048538248114,-0.228357839903948,-0.146709777212002,1.70838208009964,-0.550124036270544,2.07697104117288,1.20590155018516,-1.18530845548417,0.561053758496806,0.206658355908721,0.336895362708813,1.38697386491258,0.059276329371607,1.91395452611296,-0.498974362014005,2.23569103110245,-1.12507679327893,0.910844486710305,0.972163597020664,2.02908569255587,-0.199679108649639,-1.68746300018098,-1.30071090242501
"AACCGATGTTCTAC-1",10.6493229549363,1.63395320828959,-1.28517587758105,-1.73039763292976,3.34703418114018,1.25957205248414,0.114227271202975,0.862174131531688,-0.00330289072419248,1.61066785337682,1.1515166431057,0.910391067466741,2.25266192494988,-0.242570348494718,-2.17811528993697,0.458135613035745,0.655072864584936,0.232490244215189,1.18777213937966,2.08650720240721,1.93913049261052,0.684818338087892,-0.644064045255056,1.11904233558104,1.20737119086802,-0.104290976824284,0.868680750521575,-3.54488971033232,-0.581105633175547,-0.987709262591829,-0.609072613422274,2.40882563505999,-1.74742986813298,1.00701934371233,-1.10971865961387,-0.224916059285441,-0.579390006826961,0.181117729415204,1.99818989849473,-0.859461388216712,-2.53611105141026,-1.72697819938133,-1.10192058760572,2.09152162102362,1.38523614033159,0.427174613331851,0.321936275507509,0.975010205141452,-0.0809932779553291,-0.326448601609386
"AACCGCCTAGCGTT-1",-4.4804109848176,-2.28253472432454,0.244879755265215,-2.25909956885775,-6.60957575998622,3.08919400551403,-0.97966796251998,-1.76362352664541,-2.05971533923737,-3.73856385272226,2.08151039125741,-1.47811410177654,-0.275256956168796,-0.783995282678589,2.37307947873943,2.17179108317655,-1.76145641666092,6.17481396539964,-1.91490869210488,0.915903177819984,0.989726956210036,-1.89593858583121,-1.91418203734052,2.50093471164926,-1.10894813929631,-2.33561126788411,-0.794174336920505,-4.41397049641444,-1.20579437763478,1.87307999864074,1.52225298227634,2.03146913044848,0.647006187004921,1.41927621671453,-2.80468736499995,1.9074965630567,0.283423105560963,2.54582105325944,0.026567847035106,7.96248427016131,0.549314495843781,1.56225360690182,-1.08361165116917,-0.331887767061836,0.159255380465344,-4.21196012288116,-2.18826383375381,-1.8034624818854,0.492782636677442,2.61261881303997
"AACCGCCTCTACGA-1",14.3246489866712,0.0708139995030363,-0.242432404929861,0.873700472789742,-0.370745041648349,2.60875609698821,-0.074251735512369,0.545270763142424,-0.597103412707916,-0.501662475599905,1.0775066357938,-0.964412521058431,-2.77002219242985,0.599802092478179,1.57046279483469,-1.32467269256896,0.0163204430019886,-0.825402799847337,3.31985002528713,1.17886395949672,-2.07941166141546,0.76877514463097,-0.560563085877606,0.248810828050856,-0.214925780885462,-1.59027006898718,1.07658832710528,1.70498740707217,-0.221147310849623,-0.99421260585814,2.14730264285904,-2.14766011597664,0.177262596848089,-1.43076302105076,1.45739806167554,0.94089129773016,-4.01306755589492,-1.76560312193583,-2.62341663634509,2.26869248978551,1.05304172067019,0.708949383901403,0.306033030717299,2.96061916141176,-1.57034597860808,-4.03179360450915,-1.1025026318416,2.14328663026922,-2.01771017879027,3.76326269996857
"AACCTACTGTGAGG-1",16.1741279361599,-3.97698779391466,3.0202866552421,2.11836205598228,-2.53390981325265,4.66794204357018,-2.07638313483296,-0.368597111087853,-1.11018987957143,3.56605898883285,-1.28066693240848,-1.77569943129852,1.79784906772591,-0.582460698305234,0.440389400628593,1.05949637176684,0.340834204950174,1.17351567150255,1.32333396627939,1.8828740189071,-0.974109221720657,1.27408450736448,1.29012357430125,0.98240332158341,1.94381879125055,0.624238032737673,-0.0943641910492768,-1.16936996471877,-2.98764466922307,-0.336377544487612,0.882406237652593,-1.33276314215727,0.287283955649017,-0.830905448818741,4.5894508011083,-0.7315573877017,-1.02790122510976,-1.39183470831508,0.385065618519723,1.15692636570633,3.96640040239078,2.74827897623865,1.51962674852576,-1.17193289563314,0.529644417615167,0.309055035120932,-1.03478902131833,-0.112428027003926,0.657073526289883,0.295553097318529
"AACCTACTGTGTTG-1",-4.61516817289433,1.36339938519687,-0.746044738835609,-2.56596295859395,-1.77557554809448,-1.48994213458673,-1.83427281539376,0.194985989518255,0.0653570334593317,0.966231540133035,-1.90254986124398,0.736733411188129,0.905484286683466,0.964053970697389,0.175664978816231,-0.8839804620248,0.00373870267657796,0.664721107118892,-1.41366448007539,-2.12260757818017,-0.753710738392337,-0.202033112077909,-0.00130227771133369,0.857658756591649,0.197463664119262,1.16902456282084,1.31440764258386,-0.797592360549295,-1.3787305257123,-0.945111435179692,0.741236311941172,-0.346608679530383,-0.344723431304872,-0.862831316210948,1.45200353959814,-0.965277428199888,3.51795224650187,0.591609596202406,-0.863554081949555,-1.14386564275169,-1.06093826114031,-0.00289863774414225,-0.389287386637793,-0.286205664893719,0.49658071737252,0.343427240400556,1.67627467899583,-2.12733221478633,-0.398861677646729,-0.988824828493844
"AACCTTACGAGACG-1",-4.64673567562292,1.7824490110756,-1.30771521575675,-2.21099812130846,0.37201722498395,-0.825837690511778,-3.88124572179694,0.880567165411886,-0.628862025644638,0.445990659334639,-1.91166611534322,0.689277439079503,-0.566464716771694,-0.966366057954268,-0.720202090750692,-0.41067701661629,1.00494281618476,0.367445919097412,-2.5242356305917,1.50823518594672,0.0934730441235673,-0.17057604723704,-1.55419457044325,-0.611238998082728,0.508908004079933,-1.56514937806745,2.77868687523281,1.07061312524444,2.68341406621333,-0.0163217889127193,-1.77846585735645,-1.0306362521406,2.42364477247147,0.879982121990738,-1.59237503184412,0.155152416809893,2.25485015047303,1.16846343230603,2.18819351436814,-0.100898580874661,0.291777883040029,-0.374556407438223,-1.19840918744389,-0.0829030418203113,-0.815052395652366,0.332353227109126,0.688665772772623,-1.38708451312709,0.641228237649835,-0.1959255307018
"AACCTTACGCGAGA-1",-3.50008109998287,-10.3881284080099,2.49941339517158,3.72447550946261,6.13941004754545,-2.02676849330595,-1.06974825235997,-0.485939303269914,0.0868034657732686,1.31224576269378,2.75802528891969,0.299822906648021,-1.3175234542104,0.599169342417586,-1.81691744627515,2.06733905198772,-3.92278686997607,-1.36338431679442,-4.46699549513947,-0.12234564522149,4.03930835241181,2.27293745741641,-1.44493892059889,2.51524792611414,-2.92062747851546,-2.37804569015547,1.13055527416446,-2.70828005345059,-1.365420532045,5.51387643711778,-3.55123295642563,-3.05223988272105,1.26163744389228,4.56142364906082,-4.72562718167924,-2.92313505513764,1.18303046180541,0.962915777361698,-0.862936490526343,2.32875558492072,-2.78509178345082,1.62043844135721,-0.947436704168347,0.310185395663114,1.0385608797722,3.02497563784233,-1.59444042906312,1.66579211589968,-1.66278790506995,1.2109986434874
"AACCTTACTAACGC-1",9.88472753050589,-1.38672927157979,-0.184758095430497,-1.2313461059903,-2.28422269389537,-6.97300972078263,1.39460511589607,1.02570845629058,2.30828968679148,0.908755070065091,1.94787500702357,0.0551443056080024,-0.11178843013168,-1.14753322634337,-0.965369726640913,-0.89110904024338,-2.45326448180556,-1.97996713763092,1.98902689553801,-1.63007726558317,0.0165912483732132,-1.31421635020534,-1.26270812037077,-0.257537127675817,-1.38330792849981,2.21915894392769,-0.866053550441148,0.19128955361712,-1.31629013725202,1.53618099304913,-1.7041382610018,-0.264296767417069,-0.0931670813107681,-1.6526111562447,-2.67775840616325,-0.784893194287149,2.92858266715751,0.397772763205291,0.0974638479356767,0.6885043311449,-1.54689297685941,0.628046993472597,2.93916468742529,0.912890145169557,0.196414790512721,-2.12582154389837,1.52172273617013,-0.446481155263547,-2.32373784949965,-3.31590988133158
"AACCTTTGGACGGA-1",-5.52136726555059,0.97054572985995,-1.51162284779986,-2.39515365390522,-2.05155275377117,-1.19958013628674,-1.26143710022772,0.785651870378332,1.15875251437991,-1.53157723752051,-0.109318580917169,-1.69808909585314,0.826298392826184,0.278404182143784,0.397131170027714,-1.8215860210745,0.186604734534205,-0.86687818020163,-1.07530061216899,-3.03747051440445,0.542752152085154,1.48023328954354,0.390424105686721,2.02221624738313,-0.20796022182453,-2.10476964939723,2.24434638806162,-1.70185879488999,3.72138760023264,3.11194575710252,0.533482347803117,0.232392446056256,0.69626144992656,1.12760711534117,1.26371151217905,1.09029826387435,1.25894843521538,2.51519121126827,-1.54425420699892,-0.966141431120517,-0.823573062293622,-0.551444058380278,-0.0694197566426112,1.17038101064454,-0.542343119173983,0.503959842817371,-1.93790548417741,-0.916880985588984,-0.896609027628929,-0.196972772200939
"AACCTTTGTACGCA-1",14.3393684602457,-3.06341266840495,1.77934721750844,2.00104698510951,-6.91956826962858,-4.85696488319707,1.03746706850492,2.44741570786372,1.55666859124092,-2.44941156721855,1.00457848074445,4.02566561530713,-1.33312519657901,-1.90328760837071,-2.84224079741869,-0.635044756803442,-3.18704750037728,-2.63302207647908,1.47313525204926,-2.52194755493095,0.615269116043786,-2.57894438174252,-2.99407898609901,1.84707757083804,-0.0673707672019837,-2.08581018839342,1.4098869430603,-3.20548657726656,-0.874599190327685,0.179311438851956,2.21160925279918,0.957008460291672,-2.00060085267135,1.0426637988603,3.69201454004467,-0.539972702315783,-1.04078144442013,-1.53786287921674,0.0251052552736166,1.86075570090498,-2.51052734022895,0.665298430242207,0.456985202604283,-2.64935375829354,0.796549478386568,0.863654842392702,-1.07880386060221,-0.166153847593164,1.01713471854251,1.10500789990908
"AACGCAACAAGTAG-1",-3.81646023219355,-0.0221998503465855,-0.217405233508385,-2.08732159793793,-2.54686963116026,0.00798286831739028,1.35025934425075,-1.43316570317246,1.15598404919168,1.54819117744669,2.90096246800227,-0.617427883121762,0.755532436838183,2.22173976494759,2.6194561776787,0.531864570601744,2.48227774559547,-0.198399677134001,-2.18402742873921,-3.15597328646388,0.719300066044102,-1.9556417862286,1.66771073773049,0.208121627259376,-0.579687795899528,1.69474590552973,1.6831009905097,-1.41019291093634,0.418884517638964,0.301381824918813,-0.438535346404089,0.0313668891860664,0.595106753264556,-2.23730553561099,-1.77712426548466,2.06529558547542,1.80049903355956,1.44459044655872,-1.92425489325218,-0.715897277761515,2.04554223711941,-0.579764133051957,2.38039389304987,-0.524127472396428,1.01387070399423,-0.262762448972933,2.25675693812818,-0.235071491748968,-0.719192089223422,-1.0200214898131
"AACGCATGACCCAA-1",-3.93777680820239,-0.812319413887428,-2.46951764214304,-3.52683474139374,-1.87967750101036,-0.420171812237367,-0.628110314276334,0.950430006837425,-2.88011467822247,1.51627026560289,3.7552547140528,-1.02135607780515,1.01019489459576,-0.882434102712762,1.12198651192146,2.79058747266598,0.254568943053725,-1.29076992965901,-0.99592265469362,-0.251665813432151,3.44398306504066,-0.763895304305208,-0.836713969520149,-2.38838241627763,-0.236803201520189,-0.53786186801979,3.13626281002366,-0.575872359231342,-1.01511124676266,-1.96136138030047,2.20263567886988,-2.94652471758297,-2.65348708580468,-1.38671376916779,-0.185752765819763,1.96516089100138,3.66932161155068,1.51450210423678,2.91076160807605,2.24531005834982,0.546208237385623,2.51609855144377,1.04978180313058,2.36752844102218,-1.79081772684624,-1.40226611403327,0.58424263163302,-0.588339484426646,-0.954817458806825,-2.05722625747951
"AACGCATGCCTTCG-1",-5.13885773577135,1.76752216316207,-2.1314622421677,-1.18044520788279,-0.12672664428008,-0.693659081507498,-2.45591082768809,0.431445323186879,-1.27736672880129,0.278666961337051,-1.09067201317758,1.10677485979139,-0.723380552147966,1.09301257802584,0.337082660126566,-1.94758772674739,0.925801746684934,-0.0490210983766113,0.856195591059902,-0.533957414821859,-0.457277914589469,1.79593123059446,-1.04342637954006,0.186562101533078,-0.0718678364951227,-0.625256904742881,-0.348887781502596,0.7028488131622,-0.568610614296555,-1.86511189850597,0.125383612383959,-0.385148975360485,0.549847562679483,-1.50239613737083,-0.457714450559739,1.24892746598173,0.168716257560058,-2.62160480273088,2.3180269135538,1.32338134081555,0.466529713667541,-0.696501769777386,-1.42207395714304,0.23565318230613,-0.301183412954216,-1.50252824558981,0.0723518667086313,0.163216635283979,-0.69057729825606,1.52005846460878
"AACGCATGTACTTC-1",-3.52817977657993,-0.335521407964175,-0.993960268418724,-2.57363114164189,-3.54930743986726,1.38368175718864,-1.48832388604304,0.618268028091335,0.0150090485042241,-0.299421245054107,1.81286610890254,0.573638170319975,0.627892842134266,0.720131743826645,0.338987159778527,-1.19876046874539,-0.461877793429364,-2.32852229087492,1.18794128471308,0.276093074027417,0.849348418634068,-0.141019244372603,1.62851616550593,-0.522708587549536,-0.130501659649264,-0.948516012670388,-0.739387848508693,2.9284584812982,-0.601179605252389,1.07676436242611,-2.08910951673752,1.19053473864315,2.09170525256805,-1.47562954788899,0.458540275716029,2.19227307879803,-2.0144880451235,-2.71568747801976,0.425649703858901,0.235084841100992,0.912935824111871,2.29868152761447,1.18396270714594,-0.558165259604296,-0.220838636682235,-1.03194941532362,-0.839147811988037,0.163338117748612,0.452197284849262,1.24780648106143
"AACGCCCTCGGGAA-1",-4.36781451782272,-0.09912654221895,-1.23863107483837,-3.25786194692296,-0.771480231714362,-0.0799012398678785,2.21835772365434,0.744271864371686,2.29790422070628,-2.54724824881976,2.51293192261124,0.726099863862542,1.7411096548423,-0.352348269929407,-0.500404041602848,1.34868868324874,0.29328164839289,-1.36229314940894,-1.32047067812629,-0.499040054432715,-1.43410535166799,0.889666999224274,2.94352564419049,0.500616640643503,0.293875432186553,-0.855647784246176,-2.20202227899612,-0.29247910344769,-1.09148701405679,-0.969835340729919,-1.48223129372033,-0.93377820906216,1.69252005675833,0.283967276208802,0.0716220497847053,-0.152208693771974,-0.327437160383097,0.910359666120282,-0.997953933638542,-1.34020669702203,1.07357626728798,-0.32420605835962,0.181086001368071,1.58168139926497,-1.03629735180932,0.841726984456094,0.4983809263727,-0.364796894241093,1.2207055512147,0.465699910874638
"AACGCCCTCGTACA-1",-2.38059797198477,-15.6940492020928,4.84908879689237,7.27551088830688,7.02378385385552,1.08540991249456,-3.04400622646498,-1.78015163442466,1.73367518879014,-1.01023401003322,4.63682899724869,0.0315924994551724,0.214924210945862,0.281907983827547,-3.06829458170324,3.35583915954053,1.10446220170807,3.36179519718465,-1.32270326225542,0.700892578257734,2.63681677039061,2.21562132682515,3.26661880596647,1.82417250582972,-3.86487304178203,-0.0352045296751801,1.25978838139456,4.76294888344324,-1.81684530202043,1.58325829173179,-0.564236265180759,3.08809022947015,3.31778050059848,1.06266424496659,2.67380557980347,-5.56541402742658,-0.591093280615349,0.515815996099033,1.58801094823051,0.24736365348009,1.35922963036799,0.269888441648268,-0.604773132050484,-0.156331409172839,0.757985708566258,0.631803893032672,1.96250198792857,0.158047911260103,-0.265781309668143,-1.66741392934586
"AACGCCCTGGCATT-1",-3.20282107658822,-1.67428443719253,-0.971986810124787,-1.47428239632134,-0.989621316002526,-0.421342773781791,-0.907563414483394,-0.814352592523739,0.0549496513781607,0.855993413827648,1.59883419068999,-1.70636527747431,-0.162347815789034,-0.286223596533414,0.108717358104584,1.18767622373009,-0.592095357065556,-1.03633857167879,-0.506516517450495,0.922620204746003,-2.8518113478809,-1.68545144472026,-0.497334644932193,0.251721343948884,-3.18823370316981,0.434058017812407,0.0635252729673987,1.54103629256021,-5.12170143994479,-1.5159031038534,-2.84679387895728,-1.5207418190243,-2.06978365266313,-2.0274528917806,0.18491597183611,-1.5025944535071,-3.78241478793206,1.78026341256408,0.962071834543327,-1.41805467828445,-0.131806313918422,3.28661634022924,3.19581578015459,0.767374467309198,0.264551026504625,-0.202454519005555,-2.66659733030069,-2.77705057365024,-1.46162277498333,1.14679243494484
"AACGTCGAGTATCG-1",-3.28126067654734,-13.3855890465378,2.7478234230733,5.42214475499861,4.60099627211125,0.800405658954109,-1.15009792088336,-0.0560725869626827,0.311187645580013,-4.07659793882059,4.90050653869403,1.11768093737517,-0.659277794375353,-2.873641423735,-2.72432060802739,0.527043972210604,2.45408808804761,5.17116617361658,-3.60755915701029,-0.984440636562705,2.54737028346277,3.52324177458058,-1.82199529916609,-3.55066650111475,1.48124059146927,-3.10499955179857,-4.14347246244464,-3.15347541723808,-0.781914380863065,-1.16295120517558,0.593332876958596,5.0081330403193,1.58065834650883,0.795272872764913,-1.11109322711453,-2.01340315068792,-1.8761134814495,1.76064017317568,-3.53557928846237,4.46061900860192,-0.529407794865595,-6.26406010078285,-1.96682929592946,0.352053169750855,-0.424087005044391,-1.08555328882418,-3.82420299605515,-0.3013456724292,0.749566559844206,3.29554154373305
"AACGTGTGAAAGCA-1",-5.08593931488254,0.367819818107117,-1.09544438061539,-3.2217491927491,-3.67676862789322,-0.307101075258998,-2.11031642191063,-0.217855411684055,-1.26510640909581,3.18034869899048,-0.996005233082098,-0.553590006772127,-0.411761602936657,1.4767239525656,0.528256712597011,-1.43642074683231,-0.2510279749054,0.529836343976178,0.734749912402525,-0.575604542053995,0.229697366096268,2.74055972917019,-1.58672683623177,1.50890582176658,0.0305690775709334,0.270964000010562,-0.231612014202063,1.13592612269506,-0.5484704400215,1.88307584909685,-0.217647200213635,-0.727920302295781,0.71885672515969,2.39153219492748,1.33989633418572,-1.16476980663382,2.02624500216913,-0.525665122534839,1.08368324096942,0.655064577906682,-1.11381983275931,0.226279181179144,-0.337595707116492,-0.0933486167656789,-0.145187513040901,-1.00768488975733,1.0172897468801,1.57374096569857,-0.943357228210546,3.15734194746642
"AACGTGTGGCGGAA-1",-3.00948462541798,5.56717544273756,4.59790749092013,4.60530040081686,-0.665245386910578,-1.20498151120134,1.39034232011945,-0.708663196566922,2.20261179497006,-0.0598033852772636,-0.516279603220918,0.715242277030157,1.32039148714993,-0.300351118113178,-0.649403640730723,-3.13166965586891,-1.29782231282517,2.17815832790764,-0.134575196462278,1.24219189287935,0.553787206643071,-0.92783637168272,2.16317900014618,-0.100776475817837,-1.01132434803128,3.01390499185996,0.150286021427505,-0.301989353394955,0.559898888684494,-0.456982611876514,-0.0920993447095411,1.60577039039824,-0.625690493561933,-0.0616088734268159,-1.76452795327247,0.103763735399971,0.519479899651232,1.49365022637808,1.38407159133643,-0.46374202176335,3.98732470478049,0.947322418140796,0.174313062640895,1.52649592474748,-2.77986351356138,-0.938065111740075,-0.102050395792782,1.93060180250679,-1.30757524781109,-1.41545377311962
"AACGTGTGTCCAAG-1",-4.21543089829029,2.01968665963162,-1.47379893708363,-3.42882193988618,-0.453978073173792,-0.227615764725106,0.996431513839392,2.57718361446504,-0.788210800584163,-1.49019910716962,2.47825515175793,-0.132449512944224,1.40164050112985,0.418022963095793,0.991272994002766,-0.514075223839968,0.238932833351972,-0.0277260549989637,-0.979453343949303,-0.99483817420022,-1.81685733993619,1.98768072441036,-1.90590197110747,-0.587958736065836,2.97182758070906,-1.36709011640491,2.42947960034918,0.54305835490092,-1.77906200758008,0.937024834714504,-0.552607419189967,0.564229872006555,-0.899681217522249,-2.12276296379901,-5.15188811092977,-0.313387070781561,0.548513721977455,1.87706503258795,-0.580903257266226,-0.0195557948235663,1.35789077859879,0.503407295662604,-1.22396291027788,1.72650341066772,2.78898830734395,0.460405098393127,-0.150747099104992,-0.131299121329296,0.700836261253642,0.546778158269003
"AACGTGTGTGCTTT-1",-4.13483184128202,-0.486840202870776,-1.78948188098755,-1.47037622066269,-4.133320984318,-0.130862207821769,-0.30471489214216,-0.294478567265434,2.97651999733611,3.09906620883252,1.03656419537284,-0.916490708966738,-0.950031696658209,-1.83033863736199,1.5465326703983,-2.14669596733445,-0.301889639927098,0.22679363403894,4.48779206254921,1.99758598994265,-4.27612317180724,0.356921006121827,-1.96391378959161,0.810332429130734,-0.865070738699953,1.02558466411908,0.372805245914767,2.62052619703028,3.08271863723583,1.65909048503066,-0.523309405422982,-1.97893345615194,0.558620004177491,-0.00348043708816448,-2.262867410864,-1.99457665472082,-1.45569643906595,-0.398942949162449,-1.70151460347194,-2.32260659351838,0.43441429181686,-0.769031454195382,-1.1017715071721,1.04988563380247,-0.528132555326882,2.06584182530012,2.45638717327344,-1.5873511900659,-0.679362511161385,-0.97388577183916
"AACTACCTTAGAGA-1",-5.42419615327492,-1.25413412223756,-0.145966197348626,-1.57175061571435,-2.22247979465639,1.73424389021522,-2.78231169903628,1.49047570130723,0.739136584057954,0.190691455473193,-2.14110260658852,1.047277525683,0.554394101628266,1.34274083257224,0.235213892659725,1.04928442812211,-0.544185328312999,1.23093529795318,0.147578364327405,2.72567155164363,-1.35438359253642,0.911660455962779,0.377149575778485,1.43583216963455,4.16805472178192,0.551555317051655,-1.59287213555141,-1.49002563266458,1.32451975687736,1.49111271781364,0.239355199058276,-2.06655483875236,-1.67217815783786,-3.13567740308757,-0.720364424810512,-1.95871892924293,-1.92862951408787,0.358816303668656,-0.960775276121088,0.0909151465161779,2.85724924276455,0.16578588898471,-0.220555565439919,1.84905619018958,-0.379748547345589,-1.17347462876,-1.34879520292007,3.14908072580851,0.327484458884486,0.632078331995443
"AACTCACTCAAGCT-1",12.4720548719828,0.486341635896426,-0.279329306255966,-3.46302204909392,1.34003408822951,1.96110631581191,-1.50987164933201,1.6542172865682,-1.25264376112866,-1.50416946956589,-2.40779027123584,-2.44215747472836,-0.518320937523547,-0.114051009620113,-1.2910051487024,-1.44354813895829,0.248643308288407,2.60429041871769,1.61512055263082,0.0470566441697384,-0.155418571344513,-2.06079785668832,-1.31036787560595,3.47286334592211,0.0220197680214746,0.225827263038257,1.40871429920011,-1.06552722030315,-3.55418489504913,1.03289574591969,-0.398948284762782,0.566522945176949,1.36090433063033,0.399678322585652,0.543091803272866,-1.2514584193629,2.03252206706286,-0.508675952466709,0.284452052989511,-2.03454592804904,-1.11410951539501,1.82215450777774,-2.35807945725868,2.08367345454602,0.611889880702457,-0.997543473475686,-0.0777443734664642,-0.755171049548495,-0.603191143387443,1.71887052148047
"AACTCACTTGGAGG-1",9.05750685347874,2.54573001629075,-1.91255010440369,-1.76151726692487,3.42072745331133,1.87151646305154,-0.540750088226877,-0.564990849461119,1.53726939602392,0.909276478390357,1.28391010883237,-0.158946752161914,0.861833436583478,1.2733793300447,-1.24184597173749,-0.538210832228046,-0.0662237037240931,0.435172870995369,-0.720387560030303,-1.17999465779796,0.789305167910027,-1.8191244833908,1.21751204791245,2.35541605584354,-1.97375412984711,-1.32682064133003,-2.21905679054993,-0.0690810506636128,-0.525759533746565,-1.36552760473019,0.0656030194379151,-0.410087961667516,-0.235344923072147,-1.17596288569761,-0.885438690272352,1.51507232273784,-2.93841865204501,-0.598962089129743,-0.106519026619576,-0.77114789027154,-1.1905994175722,-0.829792748053267,0.202191863255074,-0.235142153133111,1.82980979929141,-0.708472911201382,1.1444411555259,1.03682794137158,1.56913345381614,-0.301436014938128
"AACTCGGAAAGTGA-1",-4.89336319337016,-2.67139130856085,0.518105761929293,-0.679653536508067,1.73628059948479,-0.414585327921361,3.81563120132571,-0.639567605297244,-2.52563350025634,-1.75085763976333,0.245795483489033,2.04888567298176,1.52431342157916,0.268634869308718,-0.350871739343495,-0.684931412733574,-1.47976504199277,-0.713675133485935,0.673263837380102,-3.20693601628672,0.466573768619472,0.847766530930591,-0.327675202901904,1.90905911200267,0.191896082546826,-2.4837466380496,1.36442626159017,-0.917153406515794,0.052599471448262,1.45672579259401,-2.59740672955606,0.763563031866395,2.14847117286585,-0.626905335160951,1.4969452452683,0.96738473440817,1.85077539176937,-2.39684783982092,0.98405523262844,1.82464640221971,1.73127935628595,-0.54086943065263,-0.412934930143452,-0.788479230900615,1.03431480859492,0.292410321461889,-0.0872251014449513,-0.849318787481764,-1.48879723553901,4.87050187408914
"AACTCGGAAGGTCT-1",8.90486070190578,2.30597723088809,-0.426994620153999,-1.61868939105022,3.06858303137869,-2.62825812919139,1.95438439139196,-0.536437795178557,1.37060008307384,4.21825048889676,2.4362346798009,-2.16635299743861,1.25004622977725,-2.39964770566053,-1.4621692532744,-2.45985250313467,1.47965672786877,-0.0672477063244142,-0.0394355284462682,-1.24574634575459,-1.18286779544964,-1.32208586742961,1.61259390133366,-2.46794862453266,1.02462641201897,2.92402703755852,-0.442754243913159,0.315958172144601,-0.764627315257841,-1.25087911741493,-0.164521266071835,-0.916599658195373,-1.25165401817966,1.68902021243736,0.160853800455561,1.03466608453904,-0.965618118126766,0.553863251660842,0.617845853299146,3.83684712894906,-0.511271914106265,1.94652154949678,-0.830899071066519,1.31565979256044,-2.2589946471161,0.986250405331235,1.87320229615978,-1.05162294599754,0.139448777039804,-2.03778786185044
"AACTCTTGCAGGAG-1",-3.81075276819638,0.257343815402521,0.0942839047791648,-2.02741884071624,-0.953878663155777,1.29685997489459,1.00483846172359,-0.864110139868053,1.62163341451098,0.611858048054521,-0.367578397292048,-1.77096848279182,0.179240345908996,-0.461552995976237,1.94683154250007,0.236367009299936,-0.38737157563233,-0.734725444453527,0.425036895526,0.477210130747366,0.541720483299633,-1.8027743458577,0.60911475239585,-1.52742100683192,-0.59261386479672,0.387286767519696,0.210556366929618,0.639162500302384,0.80755962871705,-0.463866646018921,-1.88749835725223,-0.0783375269855552,0.321664825207739,0.800382738053864,-0.787662006190955,-0.651500880321752,-1.06102084499479,-0.649057080689431,-0.466414102040547,0.726312420900728,0.451316963740181,-1.68321167832323,1.99368381496578,1.4723559214941,-0.938784960681044,0.30695821542063,-0.388423027892348,-1.16610532653106,0.383996925230285,1.28764594218584
"AACTGTCTCCCTTG-1",10.2992377174558,2.50965581806165,-0.262487797977439,-2.73722011635001,5.51097401333954,3.42858618724438,-1.19422438012072,-2.53402426717817,0.393717184195885,-1.2376196935442,1.35186265793341,1.92299123182558,0.723999889278116,-1.92706662916376,-1.24253444978939,0.601900039072331,-0.283031459195276,0.0211449209283883,-0.443622128777016,0.964087930818817,0.0086939196105228,1.36673085807826,-0.369393865583049,2.54796549416587,-2.42392321438615,-2.29717084708413,-0.238072121157586,-0.949695124386781,1.92589237702997,0.410648388498726,-1.61411155507332,-0.752832429011926,-2.6815243359708,0.104873828190889,-0.775886687679778,1.69732667321431,0.533994300454416,3.31022116283701,-0.579116701839959,0.524270789595096,0.872864268864862,2.07285763876134,-1.35584486397553,0.52887004694009,-2.14207724909401,1.17986390471237,-0.581391704958115,-0.609114275484164,0.206753454042036,0.540418248493473
"AACTTGCTACGCTA-1",-1.43580124288106,4.86773410511234,2.96667519509887,3.83018317334235,-2.36921170460964,2.09237055103533,1.2206714268827,-3.0117309683111,4.68909202114678,-2.15373602613312,1.31158591255725,-0.496636791102165,3.33770279075758,-1.24878574576852,-0.472126595041767,0.798103514903716,0.353765321536929,-2.94822547359172,-0.652249629544567,-0.269880893994352,-2.05432360267354,-3.66166549089355,-0.371056886685283,2.03614334062916,-0.400503352267537,0.241991901425138,-2.00572817288738,-0.546261912632829,-2.2284091702054,0.865091967406617,-0.816669269783404,0.901105282324648,0.570876309523431,0.438594790491978,-3.41008331759386,-3.50620100101422,-3.05931548798119,-2.57148348380576,-0.360568847342647,1.55838056452231,0.65711694205074,-2.86966918416685,-1.94759666710017,-0.735578356115305,-2.01123336414125,-1.2507099649077,-3.36345440445541,-0.598572138105519,-3.27137993088732,-0.050994766198475
"AACTTGCTGGGACA-1",-5.78492413261013,2.36825962813656,-1.28289497649836,-1.86478330670909,0.0941088052916518,-0.688434120078911,-1.81547299542861,0.513370354919277,-1.35113902770434,-1.15373489186999,-0.604603227635338,0.96599092509429,-1.79294696851102,3.87659997293964,2.22686838421096,2.5367905590506,-0.632259146964264,-1.39888557564592,0.66306290938718,-0.955317699205839,1.95414769338616,-0.54418674284692,-3.31299389018482,-0.18515000016144,-0.144872881692358,1.31244224126294,-0.758363257180663,0.593478395279843,0.102518811821648,2.39222104204497,-1.47895746207885,0.572811160089529,-1.54533928930691,-4.08350020892614,-3.20962656816646,-0.656165672086347,1.72935742306711,-0.823059679589751,-0.579047310563701,2.5947658921383,-0.710720666097631,1.10351734112174,0.515727774287523,-0.622105253151083,0.397394543221831,1.31151645870823,-0.946100569129399,0.868785753788965,-0.392629095560416,0.933215352585785
"AAGAACGAGTGTTG-1",-5.47033912652472,3.47069278284037,-1.07635924414594,-1.11390394801945,2.99087911443847,-2.72319223252021,-0.833273002122147,1.47766554981983,0.660497326009494,1.10371246526188,0.592416108766483,0.599222015663582,1.85634916505436,-0.660476910128643,-1.95949560785263,1.75536705347465,0.00475126096559943,-1.28801744362507,0.735760211613342,1.5336663882079,0.515164946809996,-0.0365985622292885,-2.27894689085533,2.74007568463805,0.22460614374895,0.146761507571175,-1.53299293961396,1.26464762176955,-0.183218985956421,-0.902924141386779,-1.74551452000331,0.716510930973511,-0.525331973326999,0.824838291210671,1.1619003260851,1.01987693919287,1.3924214535962,-1.08817415942204,0.133453959502869,-2.51832790102491,-0.571407153410201,1.2321581279894,0.170671961320835,2.69914025176148,0.685173162474232,1.04582812999796,-0.828476503857592,-0.278861192978693,-0.0222102463293951,-1.49592856822025
"AAGAAGACGTAGGG-1",-3.92674082253498,8.39651302601677,5.86758095160729,7.20515079621167,-0.13051431523849,-0.557494096642376,-0.922498877400693,-3.85699272217046,-0.567598009158349,-0.864390281298899,-0.629416849345398,-1.46341687681472,-0.440644777398088,0.239667353001121,1.08731899141,1.36656352665496,0.504917753422758,2.09168320813377,1.01519213603456,1.372743247388,-2.65815841897215,1.94962118903132,-0.508177204433512,-1.0846867896543,-4.32589721339817,-0.68175760358816,-0.0623322350542962,-0.438050308850505,1.09144893014857,3.7734310030915,1.31346751274525,-0.355537982459502,-4.74020577420587,4.23635132889075,2.48662534471287,0.36187054617704,-1.39792372652991,-0.267746433591862,-2.62120694020852,-2.70812072867316,1.60432002509176,3.35247035745008,0.698028030794877,-2.12552477002827,-2.78282632838296,-2.68509415264747,1.57732878212621,-1.4604869752426,-2.95118112584909,3.01509236993771
"AAGACAGAAGTCTG-1",-4.24056409146251,8.95842476444644,7.13793622394408,7.37084613348758,1.62663162301122,-0.0288843732631004,0.799228741178819,-0.697193510224231,1.33112909308091,1.2819473742164,-1.03974684324521,0.32541888178541,-1.65319890766018,0.400433880515598,-1.50367062106454,-1.60325056940263,-3.23908001223308,-2.34430154260948,3.33613661856784,0.403075758699452,0.42434788737066,-0.345163446227826,-1.60211673503699,2.29236149880354,-2.70727300933161,-3.05503816295588,-0.541326123408045,-1.64867562094583,1.98303889066312,2.6153029433233,2.78258873271048,3.04066059803543,3.79492966833947,2.02813319907901,-0.602583199504819,-4.00841202206319,0.515329837837078,2.64066740110009,5.44113630690436,2.11498428958269,-1.67921173148332,-6.55773581140052,-0.465581876331843,-1.82791638920866,0.467212169616215,-2.65625802805692,1.50864327621456,0.335292682020157,0.631963434681144,-0.646711070616529
"AAGACAGAGGATCT-1",-4.55329574429193,2.87887006564576,0.056219445088001,-1.50206385264651,-0.732489316750264,0.296422460144398,-1.97895344874656,-0.553581628879964,-0.316962534617332,-1.09146108366962,-0.122438041660189,-1.39198261337504,-2.17224499423632,-0.249753079038841,0.379050114174406,-1.03506806733371,-0.406035403396137,0.961178282630064,-1.74653318761719,1.38486700085643,-1.51853709089336,-0.254873591446678,0.563879055040428,0.128952654059824,-0.488828147997759,0.0211511030497014,-0.299940828876814,2.27285001315721,0.507464388240436,-2.46701970456595,-0.398795971723566,-1.61730284157818,0.971647574483896,-0.213223692035214,-0.35888224178219,-0.335800796423936,1.36871562345209,-1.4107185166039,-0.204412227492044,-2.12409316055504,-1.25891238305135,-0.547883779149569,-0.684457944973695,-0.876918248004484,-0.73840640299274,-0.147264500853724,1.11638584663644,0.252747832030899,-0.00828566521651269,0.141424079928626
"AAGACAGATTACCT-1",11.1988966829607,0.168179094519223,-2.18290440650247,-2.96679558493553,2.93974533881318,2.14771578835583,-2.00831971163021,-2.65851630086938,0.0943398538165768,4.53448899287027,0.590316216154903,1.00004962677235,1.98883964333803,-1.33908519988869,-2.5386679800004,-1.0545414778522,-2.30845246167556,-0.815704925710259,-0.729894616726554,1.38204021781417,-1.44123630497725,0.805916926616891,-0.246305429441221,-1.31506158005453,0.202483965865727,0.222922118040756,-0.57869200963575,0.284932166032002,-2.56878381693307,-1.58023238438609,-3.01247020120071,3.57211440993848,-1.0737074582621,1.38970306187344,1.73038093987615,-0.711778203179152,-0.723122555817326,-0.966194483684957,0.212371638662676,-0.51869732581398,-0.267938535107383,-0.23818820209953,1.24156168260128,1.50783147086595,1.09490915470664,-0.983402746324594,0.761442708537856,1.77842336327488,1.32661228459897,-1.40744014812875
"AAGAGATGGGTAGG-1",-2.9348506784357,7.40105436776027,4.11133047568724,4.32577029657082,1.83370458825538,-1.0230294904767,-0.236624683084236,-1.87932459445204,-0.412821576648355,2.9516323604316,0.0167624138442917,-1.06643473446839,-0.491949726067764,-1.29878722890569,0.583969505915237,-2.61032784309272,2.40685850098851,0.518882630114369,-0.245189704730182,-1.58305811797277,0.159216975403453,2.87948423932415,2.74800338110282,-1.34565591670685,3.76460815499027,-2.96467365241997,-0.463656369098385,-0.25425793004109,0.279674567841004,0.577632112406091,-0.867809919263239,0.348493990611364,-0.859258023890853,2.07711617099018,0.452649534947963,-0.496299432212761,1.12694549615525,2.40001155188361,-0.389055148412448,4.53494716573675,1.45775478002893,0.875034507015887,-2.08941467308031,-1.80191825119261,1.29088802060193,1.74451030367222,-0.28635022664853,2.41682457603117,-0.58099373225954,1.3013606078015
"AAGATGGAAAACAG-1",-4.2372324928088,7.64306852193141,2.92139667308414,3.33866160168926,3.32838595840829,-2.37917264632691,-0.0341106405583392,2.45709154453817,-1.50732879824345,0.367629612789367,-0.799705254189277,1.66707874379368,2.7759302311057,1.40388147279824,-3.18033250384702,0.561684309743248,0.194291868540086,-2.01796713164924,3.3084624839212,-1.75679486894717,2.24501304919336,-0.39330843654971,0.201249921683598,0.467152710076839,2.85882906047887,0.928808541540689,-1.62373407506755,0.178808571572406,0.117888326049152,-0.29852996881657,1.93865227954229,0.826121534442976,-2.11096756363609,-2.07672374673917,1.37028400041046,-0.187020787793652,-3.11278440326404,-1.01255235878805,1.02216003781538,-0.675640542359012,-0.991203446394577,1.52662394138551,1.47602684742,2.79850119673528,-3.09008687380383,0.744587805387795,-1.66343555213374,-2.2391965905841,1.69777475138319,1.84353056061718
"AAGATGGAGAACTC-1",14.0293818007546,0.567584520018907,1.37866289626894,-1.12023444729854,1.53766531360764,1.71145511620995,-0.332679331819484,-0.445609250416557,-0.979715308207774,3.10371122435566,0.617886074422419,0.0487276535407222,-0.635490030818144,0.409542816429069,1.88448935694059,-0.519396782579221,-0.287206904004745,-3.04353125287048,-1.05554736139919,1.46661567385931,-1.21636797249325,-0.626110407953759,-3.59724793512157,-4.55701075574254,-0.683113581739814,-0.267581218163969,-0.671109520196747,3.08089641749831,-0.729169351317348,-0.603783910954311,-1.79353508758829,3.08939057811234,-0.150184506759722,-1.3574323220457,0.183267416257479,-1.48389167077508,1.80747303156062,-1.51706674808072,1.80632504363871,-0.271950000457381,-0.0711078862416852,-0.793456699273499,1.32077591570921,0.485417648032084,1.71805813057363,-1.12934531467401,0.893525358639304,-0.0486555087699942,0.69528614479046,3.13905845653916
"AAGATGGAGATAAG-1",13.2841821253477,-0.194281707449202,0.908967306070971,-0.526331999952802,1.45886246037613,4.80763957792801,-0.666618365387224,-1.00676676579624,-0.589822058561759,-2.26862960631913,-0.483375457790813,-2.11531750474214,-1.07467285583296,-1.7427806691276,0.677824665284139,1.46325563066252,-2.13144017754559,1.33918644187913,-0.276075800969371,1.50075824522508,-2.24468351809481,1.18224609512301,-0.0486412021630437,-1.12352094925399,-0.237232558712814,-1.69562230449191,-2.14534408074218,-1.81874406616822,0.795439087178538,1.91775718131665,-0.143548799334547,-3.2739785500027,0.111370531039723,3.51872772886466,-1.66312443073877,0.244415078859047,-1.28287609220274,-2.30333214862232,1.34351817423336,0.84063071447258,-0.770640393592528,-0.158222554596007,-0.444708315438506,-0.654927345239377,0.307911362702888,3.03667131842917,0.213120714797389,0.996804689494597,-3.71540226129323,2.03786560718515
"AAGATTACAACCTG-1",-5.09028865416586,1.77083635558666,-1.74126587054757,-3.21830257967924,-0.07994454005419,-0.609034152972604,-3.24967938718867,2.8438943440519,2.33979460437822,1.51774131436602,-1.74585111882916,-0.0263524186165608,-1.9106315570711,0.802231750942053,0.464228393973902,0.224897921285264,-0.152877737924904,1.11670027442124,-1.57903339487775,-0.778075715671389,-1.89185133784442,1.39350686993301,0.560838302151785,-0.712589708100011,-3.2697823259494,-3.72564232136376,0.367466073497011,-1.4733387941198,-0.708857633699177,0.775838233518082,1.99698654594768,1.02785795908037,-0.192105207670143,-0.880518821016247,-1.38789881620489,-0.0343506890830957,-0.83466758187369,-1.66171288371486,1.43170568052912,-0.611407878047639,0.197267411086249,1.28854778806172,1.50466250732916,-2.40875382194167,-0.411200988610641,-1.41283819341375,1.76456530392513,-0.123563507118709,2.35826521247591,-1.49821739199294
"AAGATTACAGATCC-1",14.3018973650225,-0.394891005955609,0.101542263349925,-0.948312543977598,0.729953517218415,2.096335834851,-0.840248176926225,0.436006803124628,0.81636052382896,1.07422906245303,-2.85656300434454,-0.742936804457845,-0.850064678615999,0.442102934587723,-1.09245792182779,1.7372102566013,-0.928425887757213,1.25679557935925,-2.95971129337997,0.637798577139574,-1.35976787615146,2.59537572953457,1.53928947695649,-0.335565624130486,-0.155364848612423,2.97146272345503,-1.0817476539641,0.640402059275473,1.16988491638037,-0.507967433755314,-0.887030138231339,-0.356090679764548,2.28875459484187,-0.673963524800845,-1.31584720340908,-1.89485410829929,-2.48735228210637,1.13776073578753,-0.762613012689837,-0.783312068945458,0.296399793683843,0.38728147300037,-1.86403738169007,0.82791272262725,0.842018113968686,0.625141430998604,-0.656301356705235,-2.18753191426171,-0.245680888318782,1.37926909316361
"AAGATTACCCGTTC-1",14.4291186704603,0.0062303695955831,-1.38796512050575,-2.96568990012355,3.91854565913355,1.6257787371789,1.72240350018472,-1.33758606557743,0.0323782751795795,-0.803255139650028,1.09034769586244,0.304308098352793,0.0171466804354357,-1.76638126894061,0.489904018342292,0.315273036773417,-0.0267241117471267,-1.39142015264618,-0.379335401698636,1.12541419661014,-0.771825200664348,0.873183256253641,-0.0217287358424948,0.355729290690543,0.599125837504321,0.71807409344538,4.13514018093429,0.384584509705928,0.984315366481594,-0.805310550085579,0.518463298338688,-1.00340969441395,-0.205628715533156,-2.56794901603865,1.20500349348151,-0.22563664586081,-1.59012503899049,-1.69718387628979,-1.75511155807159,0.15689253149505,-0.839683214882263,2.39621118966718,0.679510885742921,-0.382496539420245,-0.40012865896298,0.878017673080216,-0.450288731252477,-3.83440542089308,0.394602288243605,-1.00555636012814
"AAGATTACCGCCTT-1",10.784099744269,2.3176618375002,2.07619171654404,1.23072108116654,-0.893008876017351,9.36385158522999,-1.52029990824846,8.63270131281329,-1.14452408608836,0.740078755335151,1.54475385276972,0.302658224792249,-0.0337448282326576,-0.373578643374144,0.175607333767356,-2.37305967259943,3.98942289196826,1.80111690661598,0.0923677332525213,0.228625916293688,-0.482108270787753,-1.14102068040138,1.23769363492665,-3.78815395928031,-0.267234467519136,0.787577524006793,-2.76284421545572,4.19611280716707,1.37413095571319,-3.05690909343908,0.153815910005032,1.95243935644297,0.0402676666535694,1.92863041436576,-2.502069950528,-5.40996038770084,-2.95223403456119,0.244523674993227,0.601840923684926,1.8023046982931,0.133263291185451,-1.09413356891247,-0.57590424084883,-0.930835188394069,3.0974456591716,2.42708574462595,2.7732949120268,-3.46657957944381,-1.57819023559432,-2.27547373213751
"AAGATTACCTCAAG-1",-2.44105711346073,-15.1632423839075,4.00000638102596,7.24164182358612,8.30748224204876,-1.36164066492224,-5.37288726289131,-1.33166705834144,-2.69427031071083,0.0460564611093906,-0.506565774380312,1.93341684500785,-1.23890056228593,1.02441152895479,-2.44816203128735,1.11293427438475,-0.430811237243945,1.78764077333312,-1.21934628968383,1.8997419880979,-3.051717384086,-0.232270612393651,1.46826379402187,-0.161177255308837,-0.497515509609058,-1.8922828761225,0.899138177784273,-0.212932882532486,2.10185600875942,-1.40594318210012,4.37029390019434,1.86031962060412,0.528425243593207,2.75273683848331,0.575495690564514,-1.18851079199804,-0.234799755488577,1.28138740485931,-0.213951984708009,-0.547697596564473,-0.454964527628329,-1.24137029283139,0.306893293125826,1.98306004662875,0.976954284712853,3.8907021097938,-0.0659233644499177,-4.5186376459216,-1.63212249186289,-0.811125320176164
"AAGATTACTCCTCG-1",5.31115336284046,3.67880346880959,-2.15444754201379,-3.35494199111188,5.91906898277737,-2.25032615474512,1.09080271645292,0.431396463823445,-1.06851299116481,0.976578792827234,-0.269796123121366,0.8325070287344,0.77902992161187,-0.394553029453718,-0.0390400159837244,-0.340880110866831,0.0698206516451532,0.306106179237963,-0.718362077180099,-0.980528583629249,0.898889168237985,0.818074006911831,1.23561008265609,3.40706215648096,-0.445815876034382,-2.41397621075326,-0.389732055884902,1.43838711658165,0.207979892005422,-0.485591442831923,-0.862320193518253,-0.765346238586916,-0.407041843725184,0.808074755834916,-0.628067468894457,-0.406643688597706,0.643585825829744,0.783887826430946,-0.735782360543774,-0.781831082535794,-2.313769697927,-0.337830504138412,1.20378250134523,1.1155763283976,0.761024786382683,-0.226532952677526,0.746608142155571,-0.226132586270776,0.520535944190177,-1.1449903218539
"AAGCAAGAGCGAGA-1",-4.02033845952213,-1.29428400446033,-1.34970993217347,-2.0232424015774,-1.18633625916133,0.681317351018206,0.461909207711226,2.45521683888713,-0.105902267925212,-2.06289969122771,0.133219442184967,1.27064673142113,-0.866070580629443,-1.28504076608838,0.267620770405983,1.05381871936293,1.70206449793231,-0.091686973955694,0.0509257580599531,0.313728616791674,1.6073349132902,0.236125257672936,-0.121507038242071,1.25240734789946,0.454377203771209,0.386270083796037,1.06922887764393,0.0260242386328939,0.169848684181966,-0.332019546865117,-0.361730777429931,-1.0413193279416,1.8049319720002,-1.49433491500638,-0.137678724000699,1.42912006024763,-0.297602404929922,-0.0405298654600496,2.44473446012278,-0.0574842622265041,-1.65168228397805,0.353147233864996,1.33287729402211,-0.377430761544955,1.57038886225667,-1.17201784218396,0.676788541435723,0.916433851217821,0.879837845711163,-0.78537625990233
"AAGCAAGAGCTTAG-1",-4.72362076537371,-8.50833131163546,1.79691325536581,1.45933755467108,2.71290241236144,-0.962106043627874,-2.02495194547055,0.701725468818116,2.89341005103445,-0.541973088715994,0.758630996007126,-5.30066521569801,0.865016435341818,-2.66016308916445,-0.771105312687055,-3.51090900270774,0.692084733751045,0.000530482966763864,0.642642675912194,2.05609698873262,-0.966365119707964,3.24715683332671,-3.64772046385436,-1.06444739707448,1.17406157839745,1.03033655964183,-0.590308966151174,0.265934318071234,1.8646302550675,1.75632854944519,1.79210865681692,-0.935399018805393,5.02760035579341,1.96312190825847,-1.49937377460538,-0.0752474043255491,-0.348842877681307,-1.35245881774195,1.60427709637685,0.54080163323814,-2.35436492915282,0.884925279847007,-0.405344735020214,1.97975140973544,0.114898112316089,-2.5952790387983,-3.16655851262431,1.20871199645281,-0.894736767825583,-0.244429572227634
"AAGCAAGAGGTGTT-1",-3.15740216246795,-10.1550348180243,2.17319708939942,3.32553149247065,3.89821108892248,1.29930313863848,0.306174477737974,-1.02881580149608,-1.65246987680641,0.861120520275706,-1.89991542464657,1.01581382539811,0.191257194322716,-1.12460791108179,-4.60608328779706,-0.147393959278571,0.839310665393608,1.03047513282558,1.90668717503843,1.40908132583133,-1.40192076499286,5.39944860083424,0.256761099192188,2.16732860731744,0.359023926590701,1.57747425585898,-0.300050314614662,0.250664375655508,-2.14027674094162,1.74933017600853,0.33783032850732,-1.51547112212757,-1.24183688275146,-0.490953395176493,-1.06893891246405,0.596964943431069,-0.831413376755864,-3.02886322191303,0.295451025467258,0.540163043237099,-0.844428758280551,-2.48961795728886,2.07375351264934,2.81699776086738,1.05807533785598,-2.20073469082599,1.05398036981617,-2.59426186885504,0.343090682720291,-5.32614135436827
"AAGCACTGAGCAAA-1",-3.10460761815105,5.09406611421926,2.2847277698264,3.37761929453426,-0.251695247117413,0.795909178117939,1.89994672006988,-2.77071272015766,3.5119778865893,-0.0112798102966352,0.70290551133407,-0.167028856592299,2.51361998518001,0.0347030245470533,-2.22217764380625,0.128486805656611,-0.330541096389504,0.176121970064188,0.463202834299021,0.556148300310371,-0.861274773481249,-1.48414799316643,2.11925090147822,1.63703188506706,-1.80977259376813,2.16508890214811,1.60306590862243,-0.887040148870612,1.14831646132579,-1.09447156026152,-1.10142246890282,2.35615997742165,-2.36076517278992,0.571361012774167,-0.99294694533418,0.116781729038004,0.359532156843183,-1.55305108108171,2.55569147507781,-0.0949716835504465,-2.1826619241662,-0.502041524284533,1.53163898793817,0.246609152446849,-1.07145020932365,0.314011948224053,0.381718480878037,-0.127151039529303,0.661393692968477,-0.0695455913443874
"AAGCACTGCATACG-1",-5.64161675598169,-0.541586735147147,-1.64175566024216,-1.40666039037174,3.99983186285311,-1.4766371215586,2.39862065968858,4.1262385734279,-1.95496519663548,-0.406875631990763,-0.681988656059113,-0.957602599390632,-0.496587214894025,0.223837948091681,0.600155585793566,-3.72872782114099,-0.00531999739381526,1.3947535448149,-2.02708580545249,0.557225979940929,0.0673506552596985,-0.841559191573314,0.965870234676589,2.79994630613268,-0.853730457723136,0.442499774186828,-1.29270301318061,1.75757328338164,1.46843192018845,1.62641214991826,-0.259946086390286,-1.30539127962454,0.0893602477002873,-0.789952219417403,2.02469555744297,2.95641218874707,-2.61526684396168,-1.88557850296719,2.014933976043,0.26915052313424,1.12249476586381,-1.48201422120334,0.693339418528896,2.47539216306919,0.349456331821422,0.141074521254411,-0.342759967231907,-2.41941052072657,1.2545731406214,1.46778508979008
"AAGCACTGGTTCTT-1",-1.71869581409916,3.90549028853002,5.0773514043599,5.39540989008878,-2.93978660425276,3.65208038274981,-1.44423247500728,-1.85198458157785,1.64828751778998,1.40093906556262,-0.132315322859327,1.09071656049847,2.03529937747662,-0.331220904837869,-0.728491989631769,-0.909410703110729,0.406296060169665,-1.61197655318834,1.24016550956629,-0.204717677690304,2.06630963195469,0.337347941824592,-0.617591035556643,-1.2936633655265,-0.0477247123164469,-1.0486763535249,-1.05657799017277,1.39181190219231,-2.23218040370267,-0.517490246559959,-0.620540154138949,0.00347423447103255,-0.246243222549684,-0.00503751871471836,1.4199455863978,0.458823543010838,-0.937231650888215,0.0493445315968175,2.19041749256436,1.24833256604428,-2.78483955311011,-0.179153167725478,-3.42682982023365,0.438043926477994,0.937064212241445,2.60784950535893,2.84096088470084,0.708273862348504,1.54718764252159,0.391445243624237
